word,0,1,2,3,4,5,6,7,8,9,10,11,12,13,14,15,16,17,18,19,20,21,22,23,24,25,26,27,28,29,30,31,32,33,34,35,36,37,38,39,40,41,42,43,44,45,46,47,48,49,50,51,52,53,54,55,56,57,58,59,60,61,62,63,64,65,66,67,68,69,70,71,72,73,74,75,76,77,78,79,80,81,82,83,84,85,86,87,88,89,90,91,92,93,94,95,96,97,98,99,100,101,102,103,104,105,106,107,108,109,110,111,112,113,114,115,116,117,118,119,120,121,122,123,124,125,126,127,128,129,130,131,132,133,134,135,136,137,138,139,140,141,142,143,144,145,146,147,148,149,150,151,152,153,154,155,156,157,158,159,160,161,162,163,164,165,166,167,168,169,170,171,172,173,174,175,176,177,178,179,180,181,182,183,184,185,186,187,188,189,190,191,192,193,194,195,196,197,198,199,200,201,202,203,204,205,206,207,208,209,210,211,212,213,214,215,216,217,218,219,220,221,222,223,224,225,226,227,228,229,230,231,232,233,234,235,236,237,238,239,240,241,242,243,244,245,246,247,248,249,250,251,252,253,254,255,256,257,258,259,260,261,262,263,264,265,266,267,268,269,270,271,272,273,274,275,276,277,278,279,280,281,282,283,284,285,286,287,288,289,290,291,292,293,294,295,296,297,298,299,300,301,302,303,304,305,306,307,308,309,310,311,312,313,314,315,316,317,318,319,320,321,322,323,324,325,326,327,328,329,330,331,332,333,334,335,336,337,338,339,340,341,342,343,344,345,346,347,348,349,350,351,352,353,354,355,356,357,358,359,360,361,362,363,364,365,366,367,368,369,370,371,372,373,374,375,376,377,378,379,380,381,382,383,384,385,386,387,388,389,390,391,392,393,394,395,396,397,398,399,400,401,402,403,404,405,406,407,408,409,410,411,412,413,414,415,416,417,418,419,420,421,422,423,424,425,426,427,428,429,430,431,432,433,434,435,436,437,438,439,440,441,442,443,444,445,446,447,448,449,450,451,452,453,454,455,456,457,458,459,460,461,462,463,464,465,466,467,468,469,470,471,472,473,474,475,476,477,478,479,480,481,482,483,484,485,486,487,488,489,490,491,492,493,494,495,496,497,498,499,500,501,502,503,504,505,506,507,508,509,510,511,512,513,514,515,516,517,518,519,520,521,522,523,524,525,526,527,528,529,530,531,532,533,534,535,536,537,538,539,540,541,542,543,544,545,546,547,548,549,550,551,552,553,554,555,556,557,558,559,560,561,562,563,564,565,566,567,568,569,570,571,572,573,574,575,576,577,578,579,580,581,582,583,584,585,586,587,588,589,590,591,592,593,594,595,596,597,598,599,600,601,602,603,604,605,606,607,608,609,610,611,612,613,614,615,616,617,618,619,620,621,622,623,624,625,626,627,628,629,630,631,632,633,634,635,636,637,638,639,640,641,642,643,644,645,646,647,648,649,650,651,652,653,654,655,656,657,658,659,660,661,662,663,664,665,666,667,668,669,670,671,672,673,674,675,676,677,678,679,680,681,682,683,684,685,686,687,688,689,690,691,692,693,694,695,696,697,698,699,700,701,702,703,704,705,706,707,708,709,710,711,712,713,714,715,716,717,718,719,720,721,722,723,724,725,726,727,728,729,730,731,732,733,734,735,736,737,738,739,740,741,742,743,744,745,746,747,748,749,750,751,752,753,754,755,756,757,758,759,760,761,762,763,764,765,766,767
companion,0.128,-0.082,0.109,-0.012,0.317,0.262,-0.016,0.128,0.357,-0.375,-0.227,0.076,0.185,0.006,-0.159,0.047,0.093,0.109,-0.528,0.073,0.353,0.125,-0.067,-0.153,-0.058,0.432,-0.097,0.595,-0.013,0.03,0.097,-0.141,0.378,0.228,-0.561,0.009,-0.143,-0.097,-0.319,-0.115,0.437,-0.02,0.233,0.112,0.238,-0.09,-0.115,0.205,0.231,-0.056,-0.287,0.026,0.204,0.262,0.266,0.104,0.263,-0.144,0.236,-0.24,0.15,-0.045,0.231,0.221,-0.555,0.332,0.693,-0.007,-0.158,0.477,0.46,0.006,0.016,0.18,0.162,-0.097,-0.047,0.125,0.061,-0.128,0.259,0.334,-0.209,-0.031,-0.393,0.216,0.161,-0.161,-0.138,0.46,-0.102,-0.267,-0.336,0.14,0.163,-0.223,-0.309,-0.081,0.185,-0.373,-0.212,0.456,0.051,-0.14,-0.403,0.103,-0.289,-0.671,-0.182,-0.301,0.092,-0.216,0.185,-0.047,-0.127,0.219,-0.27,0.164,-0.251,0.063,0.077,0.354,0.126,0.362,0.217,0.325,0.151,-0.184,0.034,0.152,-0.058,-0.091,-0.265,0.076,-0.23,-0.038,0.409,0.179,-0.126,-0.083,-0.173,0.729,0.149,-0.213,0.149,0.027,0.095,-0.219,-0.311,0.131,0.056,0.158,-0.158,-0.388,0.213,0.038,-0.173,0.375,-0.01,-0.027,0.564,0.126,-0.203,0.537,-0.271,0.272,0.016,0.35,0.108,-0.147,-0.358,-0.443,0.407,0.32,0.096,0.376,0.234,0.167,-0.093,-0.052,-0.101,0.131,-0.229,-0.789,0.32,0.154,-0.183,-0.237,0.148,0.096,-0.164,-0.526,-0.179,-0.096,0.151,-0.467,-0.117,-0.62,0.119,-0.411,0.069,0.099,0.245,0.46,-0.075,0.636,0.074,-0.311,0.135,-0.455,-0.2,0.199,0.029,-0.321,0.279,-0.04,0.115,0.151,-0.053,0.097,0.409,-0.106,0.179,0.42,-0.492,0.695,0.416,0.061,0.036,0.081,-0.161,-0.294,0.105,-0.08,-0.491,0.1,-0.107,0.02,0.214,-0.023,-0.22,-0.172,0.027,0.567,-0.134,-0.032,0.201,-0.11,0.11,-0.271,-0.11,-0.61,0.34,0.051,-0.459,-0.509,-0.284,-0.222,0.535,0.071,0.028,-0.022,0.667,-0.208,-0.311,0.099,0.131,-0.045,-0.087,-0.179,-0.525,-0.03,0.157,-0.377,-0.142,0.316,0.586,0.128,0.215,-0.262,-0.2,0.188,-0.421,0.328,0.248,-0.251,-0.305,0.364,0.055,-0.031,-0.343,0.393,-0.267,0.285,0.208,-0.076,0.155,0.174,-0.372,0.133,-0.359,0.016,0.251,-0.114,0.35,0.46,-0.198,0.18,-4.948,-0.146,-0.352,-0.069,0.1,-0.196,0.58,-0.402,-0.226,0.548,0.285,0.141,0.338,0.227,0.1,-0.188,-0.29,-0.193,-0.266,0.463,-0.227,-0.184,0.021,-0.242,-0.45,0.011,-0.499,0.199,-0.301,-0.152,-0.048,-0.024,-0.152,0.412,0.113,-0.065,-0.114,0.184,0.74,0.074,-0.013,0.132,0.269,0.205,0.9,-0.09,-0.049,0.011,0.016,0.246,0.026,0.176,0.092,-0.077,0.027,-0.085,0.077,0.349,-0.155,-0.469,0.002,-0.243,-0.103,0.052,-0.763,0.256,-0.471,-0.519,-0.021,-0.104,-0.287,-0.147,0.166,-0.997,-0.007,-0.15,-0.132,-0.288,0.016,-0.368,0.15,-0.178,0.391,0.016,0.218,-0.007,-0.069,-0.244,-0.245,0.088,-0.19,-0.075,0.12,-0.006,0.244,0.018,-0.029,-0.192,0.283,-0.06,0.053,-0.664,0.292,-0.292,0.05,-0.276,-0.726,-0.008,0.294,0.095,0.086,-0.296,0.111,0.188,-0.159,0.161,0.123,0.268,0.018,0.219,-0.41,0.251,-0.221,-0.167,-0.546,0.147,-0.277,0.424,-0.329,-0.086,0.148,0.164,0.188,-0.016,-0.126,-0.261,-0.455,0.023,0.235,-0.038,-0.114,0.029,-0.396,-0.069,-0.105,-0.243,0.624,0.125,-0.039,0.283,0.257,-0.181,0.479,0.377,-0.371,-0.703,0.044,-0.299,-0.022,0.318,-0.136,-0.198,0.239,-0.066,0.398,0.814,0.29,-0.303,-0.208,-0.27,0.533,0.159,-0.168,-0.013,-0.163,0.011,-0.098,-0.355,-0.014,0.428,0.141,0.031,0.286,-0.025,0.239,-0.232,-0.466,-0.338,0.181,0.509,0.288,0.016,-0.069,-0.565,-0.363,-0.043,0.259,0.083,0.335,0.125,-0.19,0.082,-0.085,0.22,0.283,-0.053,0.564,0.02,-0.474,-0.287,-0.373,-0.028,-0.552,0.021,-0.139,0.175,-0.13,0.256,-0.269,0.051,-0.129,-0.275,0.37,-0.134,0.331,0.369,-0.142,-0.28,0.036,0.177,-0.18,0.361,0.07,-0.194,0.363,-0.23,-0.681,-0.254,0.13,0.211,0.124,0.022,-0.07,-0.133,0.134,0.021,0.342,-0.047,0.261,0.19,-0.404,-0.361,0.032,-0.62,0.365,-0.669,-0.156,0.044,0.138,0.052,-0.059,0.357,-0.256,0.511,-0.407,0.075,0.122,-0.253,-0.292,0.091,0.082,0.116,0.405,0.503,-0.427,-0.073,0.4,-0.022,-0.454,-0.018,0.24,0.845,-0.301,-0.173,0.127,0.011,-0.241,-0.289,0.073,-0.021,0.18,0.179,-0.2,0.188,0.281,0.449,0.254,-0.214,-0.37,0.046,-0.357,0.547,-0.13,-0.06,-0.156,-0.025,-0.008,0.045,-0.23,0.24,0.001,-0.232,0.026,0.558,-0.376,-0.26,-0.218,-0.506,-0.15,-0.093,-0.037,-0.007,-0.077,0.178,0.143,-0.145,-0.522,-0.117,-0.207,-0.149,0.02,-0.279,0.159,0.129,-0.028,0.204,0.47,-0.293,-0.178,0.128,-0.07,0.028,-0.063,-0.046,-0.131,0.073,-0.18,0.139,0.054,0.22,0.1,0.14,-0.213,-0.888,-0.542,0.264,-0.059,0.088,-0.181,-0.485,-0.175,0.185,0.059,-0.183,-0.058,0.103,-0.046,0.253,0.216,-0.089,0.154,-0.142,-0.414,0.564,0.551,0.062,0.192,-0.048,0.348,-0.022,-0.349,-0.317,0.029,-0.361,0.54,-0.14,-0.082,0.333,0.234,-0.249,0.472,-0.197,-0.198,-0.499,0.108,-0.126,0.287,-0.252,0.23,-0.004,0.365,-0.169,0.088,0.159,-0.018,0.252,-0.032,0.229,-0.293,-0.423,0.279,0.029,-0.428,0.133,0.452,0.15,0.042,-0.18,-0.224,-0.248,0.046,0.098,0.459,-0.111,-0.088,-0.647,-0.278,0.304,0.383,0.169,-0.059,0.024,-0.198,-0.2,0.066,-0.245,0.169,0.226,0.111,-0.431,-0.406,0.004,0.382,-0.048,-1.002,0.235,0.228,-0.045,0.133,0.074,0.395,-0.107,-0.026,-0.061,0.358,-0.138,-0.067,0.236,0.385,-0.115
toast,0.209,0.411,0.026,-0.0,-0.243,-0.325,0.148,0.238,-0.12,-0.684,-0.123,0.105,0.194,0.139,-0.022,-0.173,0.106,0.037,0.229,0.015,0.143,0.055,-0.248,-0.151,0.178,0.288,-0.084,-0.024,0.071,0.021,-0.198,-0.069,0.367,0.199,-0.243,-0.328,-0.117,0.011,-0.457,-0.138,0.063,-0.452,0.961,-0.308,0.214,-0.211,0.443,0.217,0.063,-0.026,-0.048,0.14,-0.166,-0.004,-0.003,0.146,0.181,-0.07,0.299,-0.215,-0.037,-0.125,0.01,-0.187,-0.226,0.033,0.423,0.256,-0.374,0.352,0.043,-0.113,-0.364,-0.152,0.32,-0.072,0.372,-0.046,-0.178,-0.071,-0.188,-0.076,0.006,0.267,-0.304,0.278,-0.103,-0.219,-0.03,1.099,-0.189,-0.094,-0.212,-0.245,0.027,-0.098,-0.055,0.083,0.32,-0.121,-0.12,0.235,0.098,0.238,-0.413,0.098,-0.195,-0.404,0.032,-0.193,0.364,-0.122,0.155,-0.065,-0.177,0.183,0.03,0.072,0.071,-0.169,-0.2,0.366,-0.051,0.373,0.079,0.083,-0.029,-0.089,-0.019,-0.241,0.311,-0.05,-0.124,-0.174,-0.067,0.113,0.48,-0.135,0.19,-0.347,0.012,1.266,-0.118,0.341,0.099,0.075,-0.016,0.165,-0.583,0.21,0.31,0.19,-0.222,-0.226,-0.095,0.33,-0.18,0.097,0.155,0.172,0.308,-0.105,0.145,0.076,-0.063,0.136,-0.058,0.439,-0.186,-0.13,-0.051,-0.472,0.616,0.208,0.185,0.307,0.171,0.166,-0.255,0.271,-0.116,-0.229,0.008,-0.23,0.31,0.18,-0.327,-0.493,0.042,0.44,-0.196,-0.213,-0.092,-0.246,0.299,-0.228,0.241,-0.235,0.087,-0.03,0.059,0.314,0.388,0.09,-0.182,0.612,0.123,-0.169,-0.162,0.015,-0.319,0.46,0.434,-0.033,0.286,-0.036,0.325,-0.585,-0.136,0.097,0.152,-0.025,0.042,0.359,-0.314,0.262,0.517,0.209,0.046,0.415,-0.042,-0.513,0.412,-0.139,-0.072,0.161,-0.017,0.053,-0.154,-0.137,-0.253,-0.43,0.183,0.432,-0.039,0.113,0.259,-0.141,0.004,-0.319,-0.264,-0.026,0.34,-0.027,-0.536,-0.193,-0.009,-0.053,0.039,0.259,0.277,-0.201,0.96,-0.123,-0.216,0.045,-0.184,-0.101,0.038,-0.07,-0.213,-0.273,0.479,0.066,-0.438,-0.29,0.387,0.213,0.072,-0.155,-0.425,0.034,-0.62,0.297,0.402,-0.348,-0.238,-0.527,-0.106,-0.226,0.042,0.163,0.001,0.061,0.443,-0.248,0.16,0.313,0.102,-0.076,0.311,0.365,0.076,-0.339,0.336,0.265,0.043,0.33,-5.016,-0.398,0.119,-0.185,0.119,-0.151,-0.087,-0.256,-0.405,0.135,0.525,0.001,0.357,0.146,0.02,-0.444,0.264,-0.484,-0.141,0.328,0.035,-0.198,0.277,0.075,-0.442,-0.517,0.326,0.149,-0.422,0.353,0.305,-0.059,0.124,0.222,0.01,-0.075,-0.126,-0.13,0.087,0.054,0.418,0.143,-0.059,0.36,0.382,-0.179,0.395,-0.134,0.057,0.371,0.127,0.127,0.012,-0.618,0.172,0.07,0.037,0.402,-0.118,-0.624,-0.2,-0.186,0.216,0.278,-0.037,0.013,-0.396,-0.217,-0.048,0.083,-0.117,-0.134,0.141,-0.83,-0.314,-0.514,-0.33,-0.284,0.116,-0.195,0.294,0.26,0.119,0.078,0.05,0.008,0.262,-0.174,-0.294,0.368,-0.051,0.121,0.191,0.01,0.243,0.319,0.018,0.032,-0.02,0.06,-0.134,-0.167,0.224,-0.248,-0.046,0.137,-0.585,-0.153,0.049,0.179,0.069,-0.21,-0.002,0.199,-0.112,-0.06,-0.183,-0.016,-0.161,0.196,-0.234,0.399,-0.315,0.156,-0.412,0.067,0.303,-0.075,-0.019,0.016,0.209,0.028,-0.011,-0.035,0.418,-0.013,-0.155,-0.092,-0.412,0.156,0.257,-0.271,-0.278,0.261,-0.022,0.052,0.018,0.184,-0.001,0.47,-0.136,-0.045,0.395,0.112,-0.316,-0.271,0.256,-0.295,0.059,0.019,0.035,-0.267,0.114,0.187,0.177,0.823,-0.039,-0.067,-0.333,-0.041,0.419,-0.107,-0.41,-0.069,-0.065,0.026,0.059,-0.421,0.017,0.109,0.139,-0.074,0.309,-0.023,-0.003,-0.443,-0.281,0.029,0.275,0.316,0.126,-0.334,0.42,-0.358,-0.183,-0.371,0.168,0.24,0.127,-0.112,0.169,-0.3,0.072,0.092,0.265,0.145,0.354,-0.068,-0.417,-0.277,0.094,-0.458,-0.827,-0.109,0.128,-0.074,0.047,0.351,-0.132,-0.056,-0.241,-0.181,-0.031,-0.043,-0.246,0.385,-0.129,-0.212,0.186,-0.034,-0.215,0.207,0.27,0.16,0.228,-0.074,-0.752,0.039,-0.013,0.231,-0.116,-0.347,-0.089,-0.123,-0.066,0.263,0.445,0.217,0.364,0.323,-0.111,0.137,0.434,-0.475,0.391,-0.672,0.102,0.268,-0.139,-0.335,-0.308,0.057,-0.106,0.424,-0.278,0.222,0.011,-0.092,-0.301,0.29,0.399,-0.409,0.098,0.322,0.22,0.226,-0.292,-0.416,-0.607,0.302,0.172,0.472,-0.101,-0.235,0.307,-0.326,-0.56,-0.432,-0.03,-0.095,0.044,-0.016,0.106,0.679,-0.379,0.188,-0.221,0.246,-0.564,0.361,-0.094,0.227,0.017,-0.126,-0.088,0.062,-0.16,-0.246,-0.197,-0.43,-0.035,-0.304,-0.025,0.361,-0.282,0.228,0.129,-0.665,-0.281,0.227,0.13,0.112,0.365,0.054,0.298,0.091,-0.375,-0.126,0.043,-0.031,-0.064,0.293,-0.121,0.21,0.235,0.138,-0.137,-0.296,-0.045,0.207,0.2,-0.135,-0.298,-0.214,0.219,-0.264,-0.028,0.074,-0.074,0.225,0.064,0.118,-0.138,-0.11,0.162,0.08,-0.242,0.091,-0.218,0.027,0.217,-0.291,0.232,-0.378,-0.012,-0.141,-0.499,0.144,-0.192,-0.08,-0.329,-0.3,-0.548,0.55,-0.014,0.133,-0.109,0.236,0.146,-0.094,-0.258,-0.301,-0.353,0.06,0.182,0.12,-0.259,-0.195,-0.02,-0.15,0.162,-0.13,-0.557,-0.257,0.233,-0.5,0.082,-0.44,-0.012,0.256,0.356,-0.239,0.13,0.135,0.136,0.045,0.147,0.084,-0.385,0.105,0.037,-0.088,-0.353,0.157,-0.192,-0.123,0.174,-0.152,0.09,-0.561,-0.244,0.121,0.153,0.123,-0.281,-0.156,-0.21,0.408,-0.003,0.278,-0.261,0.131,0.115,-0.124,-0.311,0.105,0.063,0.001,0.022,-0.381,0.149,0.06,0.136,-0.304,-0.734,-0.16,0.372,0.145,0.053,-0.135,0.373,-0.174,0.119,-0.036,0.445,-0.029,0.145,0.169,0.364,-0.097
lounge,0.759,-0.116,0.116,0.113,0.46,-0.212,0.115,-0.032,0.137,-0.405,-0.109,0.035,0.038,0.215,0.31,-0.136,-0.042,-0.053,0.477,0.045,-0.099,-0.025,-0.406,-0.204,0.093,0.115,-0.04,0.094,-0.061,0.023,0.423,0.046,0.258,0.256,-0.152,-0.558,0.096,0.168,-0.093,0.035,-0.078,-0.762,1.251,-0.035,0.367,-0.385,0.058,0.009,0.148,-0.283,-0.373,0.527,-0.234,-0.009,0.117,0.252,0.559,0.012,0.352,-0.243,0.127,0.19,0.04,-0.239,0.03,0.159,0.633,-0.151,0.06,0.196,0.208,0.084,-0.308,-0.049,0.012,-0.008,0.009,0.11,0.152,-0.025,0.292,0.337,0.258,0.215,-0.302,0.278,-0.098,-0.105,-0.064,-0.113,-0.452,-0.382,-0.103,0.059,-0.131,-0.066,-0.078,0.016,0.458,0.1,0.225,-0.118,-0.005,-0.151,-0.348,0.073,-0.32,-0.263,0.098,-0.058,-0.121,0.066,0.022,-0.321,-0.051,-0.071,-0.208,-0.036,0.187,-0.023,-0.022,0.371,0.107,0.534,-0.122,-0.194,-0.08,-0.037,0.075,-0.284,0.305,0.046,0.059,-0.21,-0.131,0.199,0.612,-0.016,0.21,-0.034,-0.29,0.575,-0.09,-0.033,-0.178,-0.077,0.216,-0.375,-0.54,-0.133,0.063,0.184,-0.196,-0.453,-0.072,-0.109,-0.036,0.012,0.045,-0.213,0.34,-0.078,-0.175,0.62,0.114,-0.1,-0.2,0.226,0.102,0.13,-0.251,-0.286,0.318,0.11,-0.525,0.285,0.143,-0.021,-0.246,0.128,-0.221,0.156,-0.292,-0.755,0.54,0.323,0.532,-0.206,0.28,0.427,0.076,-0.53,-0.102,-0.078,0.207,-0.503,-0.161,-0.187,-0.059,-0.252,-0.065,0.101,0.625,0.324,-0.551,0.457,0.026,-0.22,-0.181,-0.067,-0.444,0.08,-0.041,-0.131,0.45,-0.21,0.098,-0.665,-0.22,0.103,0.599,0.253,0.021,0.423,-0.226,0.612,0.545,0.037,0.21,0.519,-0.038,-0.265,0.014,-0.147,-0.108,0.328,0.146,0.035,-0.153,-0.006,-0.158,-0.534,0.114,0.32,0.138,0.229,0.042,-0.049,0.067,-0.167,-0.096,0.033,-0.043,-0.166,0.02,-0.035,0.046,-0.161,-0.041,0.177,-0.207,-0.048,0.596,-0.067,-0.277,0.065,-0.326,-0.357,0.133,0.125,-0.481,-0.182,0.173,0.115,-0.358,0.167,0.261,-0.089,0.437,-0.219,-0.037,-0.138,-0.316,0.355,0.472,-0.289,-0.106,-0.366,0.088,-0.502,-0.035,0.338,-0.28,0.016,0.508,-0.243,0.075,0.263,0.082,-0.004,0.12,0.182,-0.051,-0.187,0.591,0.459,-0.03,-0.064,-5.012,-0.258,-0.078,-0.079,0.107,-0.067,0.152,-0.079,-0.361,-0.435,-0.197,0.043,0.335,0.259,-0.073,0.051,0.029,-0.237,-0.103,0.488,-0.326,-0.161,-0.004,-0.237,-0.045,-0.063,-0.238,0.101,-0.511,-0.274,-0.204,0.068,-0.14,0.677,0.171,0.105,-0.11,-0.187,0.604,0.039,0.028,-0.004,-0.028,0.407,-0.056,-0.095,0.266,-0.227,-0.0,0.178,0.024,-0.135,0.302,0.026,0.11,-0.0,-0.141,0.167,-0.038,-0.088,0.101,-0.3,-0.103,0.056,-0.112,-0.073,-0.486,-0.364,0.325,0.194,0.096,0.075,0.438,-0.893,-0.351,0.097,-0.275,-0.312,0.459,0.147,0.312,0.01,0.016,0.076,-0.216,-0.339,0.097,-0.023,-0.315,0.386,-0.054,0.04,0.115,-0.172,0.033,0.355,-0.06,-0.335,0.312,0.119,0.004,-0.145,-0.174,-0.102,0.379,-0.195,-0.403,-0.045,-0.2,0.409,-0.053,-0.085,0.01,0.41,0.385,-0.116,-0.142,0.218,-0.004,-0.236,0.06,0.237,-0.234,-0.002,-0.461,0.039,-0.1,-0.411,-0.12,0.03,0.275,-0.01,0.215,-0.207,0.174,-0.146,0.017,-0.277,0.36,0.307,0.177,-0.127,-0.183,0.207,-0.183,0.2,0.331,-0.009,-0.048,0.371,0.039,-0.228,0.296,0.025,-0.01,-0.372,0.495,-0.375,0.329,0.242,0.133,-0.186,0.138,0.092,-0.184,0.595,0.115,-0.05,-0.189,-0.346,0.046,-0.054,0.019,-0.006,0.033,0.13,-0.185,-0.35,0.2,0.223,-0.073,-0.07,-0.057,-0.146,0.02,0.269,-0.776,-0.097,0.283,0.523,0.025,-0.243,0.197,-0.509,-0.385,-0.189,0.152,0.423,0.131,0.107,0.017,-0.126,-0.056,0.178,0.295,0.092,0.458,0.059,-0.777,-0.087,-0.267,-0.449,-0.442,-0.131,-0.481,-0.037,-0.242,0.113,-0.297,0.151,0.141,-0.132,-0.073,-0.279,-0.514,0.173,-0.175,-0.387,0.037,0.257,-0.042,0.032,0.262,-0.177,0.096,0.037,-1.103,-0.073,0.576,0.18,-0.097,-0.176,-0.155,-0.247,0.169,-0.211,0.073,-0.086,0.025,0.096,-0.086,-0.143,0.523,-0.336,0.377,-0.41,0.289,0.161,-0.045,0.092,-0.177,0.188,-0.29,0.294,-0.275,0.328,0.441,-0.187,-0.011,-0.05,0.026,0.063,0.123,0.406,0.008,-0.209,0.313,-0.219,-0.247,0.173,0.343,0.568,0.225,-0.405,0.209,0.03,-0.311,0.046,0.014,-0.078,0.337,-0.15,0.145,0.334,-0.106,0.271,0.273,-0.082,-0.261,0.049,-0.563,0.309,-0.188,0.143,0.056,-0.133,0.184,-0.201,-0.151,0.14,0.054,-0.345,0.001,0.398,-0.483,0.075,0.384,-0.072,-0.397,0.133,-0.072,-0.228,0.408,0.193,0.031,-0.404,-0.141,0.179,0.175,0.169,0.245,0.098,0.161,0.092,0.197,0.2,0.223,-0.127,-0.187,-0.221,-0.165,-0.011,-0.359,0.054,0.291,-0.156,0.05,0.15,-0.282,-0.042,0.077,0.166,-0.051,-0.339,0.397,-0.065,0.015,0.036,-0.439,0.037,0.128,-0.057,0.033,-0.128,-0.534,0.196,-0.243,-0.08,-0.055,-0.302,0.058,-0.2,-0.392,0.059,0.079,-0.089,-0.113,-0.168,0.186,0.273,0.446,-0.12,-0.135,-0.015,0.419,-0.071,-0.107,-0.168,0.18,0.08,0.063,-0.202,0.049,-0.421,0.246,-0.34,-0.321,-0.315,0.013,0.011,0.158,0.047,0.062,-0.052,0.085,0.192,-0.341,-0.282,-0.368,0.124,-0.579,0.037,-0.331,0.421,0.271,-0.045,-0.051,0.141,-0.151,-0.183,-0.067,0.393,0.407,-0.149,-0.482,-0.282,-0.522,0.066,0.271,0.206,-0.383,-0.246,-0.039,0.218,-0.579,0.132,0.138,0.27,0.433,-0.245,0.146,0.167,0.661,-0.302,-0.494,-0.225,-0.264,0.059,-0.021,-0.131,0.259,0.07,-0.059,-0.114,0.441,-0.096,-0.074,0.196,0.215,-0.254
watch,0.401,-0.003,-0.061,-0.406,0.933,-0.14,-0.186,0.286,-0.17,-0.822,0.141,-0.007,-0.275,0.295,-0.303,0.193,0.141,-0.018,0.35,0.128,0.479,-0.028,-0.078,-0.01,-0.097,0.339,-0.187,0.235,-0.27,0.265,0.278,-0.045,-0.062,0.51,-0.654,-0.154,-0.103,0.391,-0.139,0.44,0.308,-0.499,-0.056,-0.008,-0.226,0.007,0.566,-0.059,0.055,-0.156,-0.194,0.463,0.7,-0.028,0.09,0.01,0.32,0.049,-0.275,-0.036,0.108,-0.156,0.444,-0.055,-0.422,0.236,0.546,0.209,-0.46,0.383,-0.166,0.129,-0.474,-0.171,0.012,0.161,0.069,0.338,0.214,-0.405,0.375,0.354,0.333,0.39,-0.438,-0.286,-0.369,-0.246,-0.429,0.761,-0.16,-0.701,-0.04,0.063,0.235,-0.798,-0.279,0.042,-0.161,-0.399,0.17,-0.248,0.093,-0.106,-0.511,-0.19,0.053,-0.123,-0.353,-0.241,0.012,-0.022,0.026,0.23,-0.035,0.372,-0.021,-0.312,0.239,0.088,-0.481,0.187,0.195,0.271,0.2,0.315,-0.138,-0.192,0.046,-0.577,0.585,0.429,0.161,-0.148,-0.267,-0.001,0.433,-0.377,-0.176,-0.12,0.593,0.454,0.058,-0.07,0.142,-0.041,-0.635,-0.71,-0.538,0.352,-0.385,-0.069,-0.22,-0.772,-0.143,-0.363,0.033,0.318,-0.01,-0.048,0.358,-0.035,-0.202,0.251,-0.17,-0.227,0.694,0.471,0.13,0.072,-0.471,0.106,0.792,0.368,0.092,0.473,0.154,-0.162,-0.236,-0.138,-0.132,-0.334,0.397,-0.078,0.371,-0.097,0.664,-0.369,-0.097,0.055,-0.336,-0.258,0.029,-0.02,-0.034,-0.97,0.294,-0.583,0.007,-0.059,0.175,-0.303,0.549,0.458,-0.162,0.429,-0.036,-0.598,-0.045,-0.421,-0.502,0.249,-0.013,0.015,0.141,-0.143,0.068,0.084,-0.41,0.041,-0.102,-0.121,-0.393,0.397,-0.651,0.256,0.223,-0.142,-0.017,-0.478,-0.517,-0.686,0.112,0.092,0.255,0.512,-0.594,0.129,0.023,-0.225,0.056,-0.199,0.4,0.599,-0.246,0.228,0.406,-0.159,-0.115,-0.412,-0.111,-1.021,0.206,-0.38,-0.095,-0.843,0.149,-0.052,0.315,0.321,0.125,-0.055,1.038,0.059,-0.347,-0.531,0.053,0.257,0.126,0.006,-0.095,-0.476,0.345,0.218,-0.663,-0.641,0.509,0.162,0.473,-0.068,-0.142,0.796,0.24,0.216,0.371,-0.713,0.273,-0.201,-0.345,-0.069,-0.394,0.292,-0.207,0.082,0.162,0.002,0.021,0.381,-0.247,-0.131,0.401,-0.084,0.37,-0.188,-0.092,0.245,-0.272,-0.47,-4.538,-0.08,-0.014,-0.325,0.149,-0.387,0.425,-0.092,-0.733,0.274,0.359,0.067,0.378,0.345,0.34,0.317,0.052,-0.284,-0.523,0.493,-0.299,-0.41,0.492,-0.199,-0.013,0.599,-0.291,0.043,-0.686,-0.063,-0.161,-0.008,-0.055,0.079,0.227,-0.105,0.183,0.018,1.222,-0.06,0.073,-0.089,-0.149,-0.017,0.288,0.006,0.358,-0.079,-0.266,0.339,0.127,-0.169,0.041,-0.073,-0.289,-0.065,0.281,0.833,0.043,-0.338,0.259,-0.257,-0.212,0.308,-0.817,-0.057,-0.024,-0.519,0.211,0.119,-0.009,-0.018,0.104,-1.243,-0.679,0.116,-0.35,-0.024,0.012,-0.617,-0.241,-0.091,0.04,0.341,0.122,-0.329,0.269,-0.495,-0.357,0.223,-0.233,-0.123,0.118,0.092,0.328,0.144,0.683,-0.484,0.438,0.03,0.03,-0.335,0.289,0.003,0.654,-0.134,-0.603,0.465,0.14,0.324,0.284,-0.051,0.374,-0.043,-0.193,-0.373,0.289,0.199,0.226,0.012,-0.608,0.281,-0.681,-0.182,0.081,-0.212,-0.025,-0.013,-0.363,0.257,0.032,0.273,0.019,-0.276,0.059,-0.441,-0.696,-0.289,0.275,0.723,0.044,0.157,-0.372,0.498,0.507,0.204,0.643,0.428,0.018,0.524,-0.221,-0.322,-0.037,0.198,0.438,-0.09,0.494,-0.326,-0.065,-0.291,-0.133,0.185,-0.628,-0.033,0.194,1.029,0.042,-0.034,-0.254,-0.344,0.579,0.019,-0.155,0.197,-0.037,-0.16,-0.288,-0.296,-0.269,0.52,0.124,0.351,0.527,0.028,-0.086,0.0,-0.365,-0.099,0.038,0.806,0.371,-0.057,-0.44,-0.762,-0.057,-0.288,0.34,0.489,0.004,0.118,-0.519,-0.024,-0.54,0.141,0.384,0.19,0.118,0.714,-0.166,-0.048,-0.463,-0.549,-0.776,-0.577,-0.317,0.016,0.183,-0.187,-0.053,-0.43,0.334,-0.132,-0.072,-0.128,-0.006,-0.042,-0.141,-0.635,0.062,0.364,-0.084,0.327,0.446,0.209,-0.004,-0.343,-1.046,0.088,-0.015,0.261,0.079,-0.536,-0.486,0.023,0.339,-0.052,-0.335,0.354,0.511,0.518,0.105,-0.027,0.249,-0.213,-0.068,-0.656,0.111,0.507,0.014,-0.103,-0.26,0.689,0.292,0.673,-0.125,0.615,0.167,-0.461,0.263,0.031,0.125,-0.213,0.13,0.685,-0.013,-0.126,0.102,-0.213,-0.092,0.194,0.216,0.767,-0.073,-0.131,0.083,-0.289,-0.308,0.269,-0.062,-0.146,-0.096,0.262,-0.041,0.949,0.782,0.52,0.218,-0.097,-0.261,0.241,-0.384,0.112,0.445,0.021,-0.29,0.044,0.049,-0.095,-0.105,0.125,0.123,-0.448,0.127,0.899,-0.086,0.152,-0.082,-0.485,-0.192,0.247,0.107,-0.11,0.088,0.17,0.255,-0.215,-0.501,-0.004,0.449,0.478,-0.156,0.518,-0.246,0.718,0.108,-0.015,0.699,-0.337,-0.277,-0.411,0.055,-0.024,0.92,-0.028,-0.075,-0.351,0.047,-0.088,0.183,0.608,-0.009,0.049,-0.347,0.391,0.249,0.155,0.096,0.283,-0.596,-0.566,-0.134,0.011,-0.342,-0.465,0.043,0.077,0.066,-0.065,-0.121,-0.167,-0.048,-0.107,0.266,0.321,0.194,-0.165,0.251,-0.213,-0.23,-0.55,0.379,0.243,-0.219,-0.563,0.148,-0.495,-0.254,-0.371,0.319,-0.371,0.382,-0.312,-1.181,-0.721,0.349,-0.489,-0.159,0.272,0.191,0.429,0.148,-0.257,0.075,0.011,0.008,0.036,0.021,-0.561,-0.628,0.072,0.056,-0.029,-0.408,0.898,-0.278,0.372,0.221,-0.47,-0.05,-0.733,0.051,-0.197,0.278,0.753,-0.147,-0.707,-0.389,0.432,-0.164,0.294,-0.527,0.107,0.246,-0.346,-0.557,0.168,0.285,0.248,0.263,-0.621,-0.032,0.191,0.139,-0.132,-0.593,-0.191,-0.058,0.08,0.165,0.157,0.459,-0.067,-0.266,-0.318,0.173,-0.109,0.219,-0.01,0.404,-0.161
haul,0.58,0.031,0.311,0.048,-0.102,0.081,0.047,0.423,-0.187,-0.115,0.155,0.266,0.068,0.087,0.325,-0.004,-0.385,0.058,-0.035,-0.209,0.487,-0.133,-0.039,-0.09,0.172,0.075,-0.243,-0.102,-0.269,-0.18,-0.19,-0.258,0.184,0.596,-0.168,-0.191,0.143,-0.14,-0.297,-0.13,0.19,-0.315,0.053,-0.076,0.124,-0.076,0.3,-0.194,-0.026,-0.067,-0.335,0.039,0.014,-0.007,-0.243,0.104,0.366,-0.264,0.433,-0.366,0.215,-0.454,0.109,0.155,0.087,0.034,0.215,0.188,-0.44,0.109,0.167,0.233,0.074,0.217,0.137,-0.116,0.081,-0.104,0.074,-0.13,0.132,0.086,-0.119,0.307,-0.027,0.247,0.144,0.022,0.373,0.484,0.166,0.082,-0.313,-0.08,0.159,-0.03,-0.262,0.074,0.163,-0.195,0.085,0.409,0.262,-0.152,-0.165,0.249,0.15,0.219,0.105,-0.2,-0.178,-0.13,-0.045,-0.088,-0.205,0.077,-0.159,-0.084,-0.22,0.092,0.015,0.237,0.012,0.345,-0.004,0.485,-0.19,0.151,0.26,-0.002,0.179,-0.115,0.114,0.098,0.046,-0.293,0.257,0.226,0.379,-0.338,-0.4,0.298,0.589,0.031,0.1,-0.305,-0.057,0.176,-0.282,0.123,0.3,0.19,-0.307,-0.423,-0.249,0.08,0.007,0.062,-0.05,-0.226,0.049,-0.016,-0.058,0.361,-0.118,-0.128,0.286,0.162,0.087,-0.358,-0.343,-0.104,0.4,0.178,-0.241,0.174,0.025,0.335,-0.16,0.284,0.178,0.406,-0.173,-0.402,0.317,0.229,0.486,-0.06,-0.091,0.281,-0.244,-0.172,-0.317,-0.218,0.189,-0.468,0.249,-0.305,-0.102,-0.383,-0.094,0.224,0.305,0.092,-0.21,0.331,0.094,-0.056,-0.046,-0.16,-0.293,0.493,-0.025,-0.267,0.004,-0.275,0.16,-0.071,0.068,0.112,0.178,-0.004,0.333,0.161,-0.451,0.52,0.691,0.088,-0.083,0.289,-0.263,-0.428,-0.298,-0.111,-0.381,0.228,0.168,0.067,-0.133,0.01,-0.284,-0.141,-0.03,0.399,0.231,0.064,0.015,-0.178,0.101,-0.331,0.034,0.147,0.173,0.123,0.187,-0.15,0.077,-0.2,0.386,0.161,0.374,0.015,0.542,-0.396,-0.211,0.157,-0.23,-0.065,0.308,-0.421,-0.28,-0.121,0.407,0.04,-0.39,-0.386,0.383,0.011,-0.03,-0.246,-0.325,0.364,-0.095,0.131,0.298,-0.135,-0.39,-0.154,0.165,-0.401,-0.01,-0.072,-0.107,0.229,0.075,-0.091,0.07,0.309,-0.031,-0.086,-0.237,0.11,-0.126,-0.152,0.208,0.395,-0.13,-0.19,-5.136,0.093,-0.121,-0.12,-0.029,-0.238,0.244,0.046,-0.532,-0.28,0.548,-0.197,-0.179,0.098,-0.135,0.29,0.251,0.034,-0.295,0.172,0.099,-0.221,0.177,-0.33,-0.166,0.08,0.421,0.183,-0.359,-0.086,0.197,-0.197,0.053,-0.078,-0.136,-0.467,0.21,-0.093,0.534,0.129,-0.433,-0.009,-0.038,0.148,0.274,-0.268,0.069,-0.162,0.065,-0.01,0.131,0.016,-0.045,-0.38,0.163,0.019,-0.162,-0.122,-0.05,-0.086,0.045,-0.324,-0.16,0.261,-0.771,0.264,-0.227,-0.464,-0.117,0.056,-0.09,0.327,0.101,-0.692,-0.213,0.046,-0.354,-0.138,0.197,-0.134,-0.191,-0.179,0.344,0.12,-0.127,0.106,-0.151,-0.167,-0.412,0.385,-0.132,-0.203,0.106,-0.145,0.064,0.338,0.06,-0.035,0.153,0.294,-0.064,-0.091,-0.027,-0.262,0.262,-0.162,-0.449,0.337,0.069,-0.025,0.384,-0.202,0.09,0.196,0.03,0.078,0.061,0.232,0.187,-0.055,-0.002,0.147,-0.241,-0.028,-0.457,0.068,-0.087,-0.239,-0.344,0.158,-0.107,0.366,0.348,-0.223,-0.172,-0.101,-0.082,0.041,0.013,-0.016,0.162,-0.248,-0.462,0.228,-0.158,0.027,-0.139,-0.004,-0.168,0.319,-0.209,-0.547,0.48,0.502,0.03,-0.162,0.223,-0.291,0.211,-0.08,0.008,-0.244,0.392,0.057,0.067,0.315,0.182,-0.466,-0.19,-0.233,0.142,-0.263,-0.396,0.087,-0.158,-0.022,0.256,-0.702,-0.123,0.467,0.112,0.015,0.332,0.009,0.241,0.296,-0.525,0.238,0.306,0.308,-0.07,-0.288,0.101,-0.043,-0.162,-0.073,0.282,0.742,0.045,0.049,-0.243,0.014,0.221,0.058,0.312,0.162,0.249,0.209,-0.222,-0.395,0.323,-0.239,-0.277,-0.065,-0.042,-0.169,0.216,0.111,-0.457,0.059,-0.19,-0.151,0.031,-0.153,-0.205,0.356,-0.377,-0.435,0.226,0.112,-0.489,-0.148,-0.043,0.031,-0.013,-0.043,-0.194,0.049,0.0,0.078,-0.075,-0.353,-0.384,0.005,0.242,0.446,0.295,-0.159,0.166,0.256,-0.242,0.153,-0.086,-0.202,0.425,-0.314,-0.011,0.076,0.176,0.143,-0.235,0.335,-0.137,0.388,-0.095,0.023,0.18,0.037,-0.177,0.033,-0.056,0.166,0.42,0.038,0.128,0.128,-0.105,-0.152,-0.517,0.393,-0.02,0.123,-0.327,-0.373,0.252,0.14,-0.354,-0.094,0.071,-0.011,0.086,0.051,-0.079,0.038,-0.122,0.13,-0.155,-0.019,-0.344,0.205,-0.276,0.104,-0.089,-0.326,-0.203,-0.04,0.062,-0.184,0.037,0.538,-0.01,-0.035,0.0,0.562,0.491,-0.287,0.038,-0.4,-0.2,0.169,-0.068,0.227,-0.11,0.213,0.129,-0.045,-0.31,-0.313,-0.011,0.349,-0.097,-0.045,-0.124,0.303,0.241,0.125,0.252,0.022,0.004,0.175,0.121,0.018,-0.294,-0.342,0.124,0.029,-0.084,0.009,-0.049,0.286,0.018,0.102,-0.063,-0.472,0.061,-0.071,-0.008,0.293,-0.135,0.008,0.336,0.293,-0.128,-0.074,-0.189,-0.178,0.017,0.219,-0.325,-0.053,-0.186,-0.506,-0.587,0.2,0.157,0.091,0.06,0.162,-0.07,-0.025,-0.138,-0.38,0.197,-0.007,0.502,-0.27,-0.019,0.126,0.134,-0.151,-0.02,0.035,0.046,-0.022,0.162,-0.552,-0.206,-0.396,0.168,0.142,0.082,-0.093,0.319,0.131,-0.116,0.097,-0.025,0.017,-0.325,-0.325,-0.016,-0.084,-0.29,0.349,0.014,-0.102,-0.03,-0.254,-0.09,-0.423,-0.206,0.324,0.049,0.125,-0.143,-0.263,-0.212,0.253,-0.337,0.051,0.087,0.078,-0.111,-0.088,-0.054,0.13,-0.077,-0.212,0.066,-0.232,0.129,0.148,0.187,-0.611,-0.376,0.223,0.091,0.059,-0.091,0.217,0.505,0.096,0.095,-0.009,0.453,0.003,0.337,0.259,0.064,0.092
combination,0.105,-0.146,0.067,-0.017,0.543,0.3,0.066,0.003,-0.194,-0.229,-0.085,0.029,-0.149,0.204,0.161,0.003,-0.071,0.093,-0.019,0.419,0.256,0.075,-0.245,-0.253,0.001,0.271,-0.145,-0.083,0.084,0.174,0.15,-0.052,0.549,0.281,-0.374,-0.31,-0.163,-0.128,-0.302,0.178,0.126,-0.358,0.154,0.031,0.2,-0.19,-0.603,-0.072,-0.266,-0.101,-0.102,0.074,-0.27,0.238,-0.025,0.164,0.076,0.108,0.25,-0.193,-0.204,-0.23,0.33,0.051,0.049,0.311,0.303,0.538,-0.306,0.193,-0.061,0.438,0.096,-0.213,-0.037,-0.109,0.022,0.006,0.215,-0.019,0.419,0.138,-0.076,0.148,-0.024,0.206,-0.195,0.124,0.048,0.214,0.065,-0.252,-0.15,0.014,0.202,-0.493,-0.126,0.112,0.494,-0.304,0.159,0.029,0.072,-0.173,-0.18,-0.128,-0.442,0.195,-0.192,-0.509,-0.48,0.068,0.347,-0.29,-0.001,0.401,-0.363,0.641,-0.14,0.137,0.009,0.569,-0.101,0.497,0.164,0.494,-0.24,-0.191,0.415,-0.157,-0.122,0.03,0.044,0.215,-0.217,-0.295,0.319,0.3,0.245,-0.135,-0.546,0.863,0.022,-0.333,-0.058,-0.139,-0.315,-0.073,-0.078,0.068,-0.008,0.518,-0.388,-0.448,0.023,0.3,0.023,0.175,0.13,-0.273,0.525,-0.105,0.07,0.388,-0.283,-0.226,-0.304,0.551,-0.125,-0.102,-0.266,-0.47,0.403,0.27,0.196,0.22,0.006,0.061,0.211,0.246,-0.1,0.664,-0.251,-0.511,0.176,0.13,0.621,-0.523,0.302,0.703,0.132,-0.141,-0.124,-0.076,0.15,-0.356,-0.493,-0.323,0.199,-0.207,0.029,-0.035,0.243,0.26,-0.135,0.778,0.097,-0.215,-0.064,-0.248,-0.271,0.213,-0.016,-0.39,0.399,-0.192,0.066,-0.22,0.078,0.363,0.516,-0.26,0.13,0.375,-0.531,0.701,0.525,0.181,0.151,-0.199,0.064,0.033,-0.09,-0.115,-0.306,0.093,-0.102,0.25,-0.253,-0.02,-0.14,-0.322,-0.387,0.263,-0.121,-0.0,0.208,-0.171,-0.033,-0.294,0.089,-0.272,-0.013,0.108,0.241,-0.332,0.131,-0.4,-0.014,0.057,-0.116,0.022,0.697,-0.661,-0.162,0.146,-0.299,0.153,0.142,-0.313,-0.275,-0.221,0.14,-0.584,-0.39,-0.291,0.494,0.221,-0.153,-0.109,-0.463,0.115,-0.335,0.128,0.13,-0.409,-0.132,-0.076,0.045,-0.268,-0.304,0.1,-0.514,0.0,0.423,-0.253,0.092,0.36,-0.192,0.189,0.032,0.073,-0.079,-0.277,0.2,0.178,-0.286,0.082,-4.877,-0.292,-0.427,-0.014,0.142,-0.467,0.189,0.052,-0.335,0.061,0.112,-0.143,0.176,0.387,-0.06,-0.19,-0.295,0.353,-0.207,0.603,-0.37,0.065,0.159,-0.238,-0.342,-0.053,-0.271,0.245,-0.731,0.245,-0.033,0.141,-0.215,0.61,-0.162,-0.13,0.138,-0.232,0.119,0.356,-0.04,-0.141,0.239,0.11,0.458,-0.242,0.57,0.142,-0.159,0.113,0.033,0.025,0.211,-0.171,0.172,0.273,-0.067,0.535,0.152,0.061,0.034,-0.27,0.118,0.259,-1.106,-0.059,-0.763,-0.527,0.124,0.26,-0.074,-0.193,0.246,-1.026,-0.346,0.241,-0.127,-0.34,0.069,-0.121,-0.134,-0.097,0.293,0.387,0.474,0.218,-0.028,-0.16,-0.35,0.807,-0.082,0.194,0.519,-0.199,0.105,0.247,-0.098,-0.25,-0.01,-0.075,-0.2,-0.186,0.06,-0.225,0.378,-0.579,-0.333,0.077,0.095,0.097,0.215,-0.077,0.031,0.257,0.0,0.008,-0.305,0.232,-0.005,0.217,-0.554,0.223,-0.214,-0.301,-0.365,-0.008,-0.35,-0.568,-0.185,0.117,-0.029,0.088,0.214,-0.413,0.041,-0.137,-0.249,0.251,-0.123,-0.145,0.411,-0.252,-0.179,-0.305,-0.053,-0.15,-0.198,0.028,-0.165,0.515,0.311,-0.308,0.278,0.398,-0.301,0.02,0.41,-0.352,0.136,0.033,-0.031,-0.032,-0.504,0.092,0.285,0.66,0.216,0.052,-0.136,0.06,0.333,-0.316,0.17,-0.006,-0.249,0.06,0.009,-0.306,-0.161,0.575,0.2,-0.352,-0.044,0.331,0.461,0.3,-0.629,-0.123,0.214,0.302,0.483,-0.254,0.215,-0.745,-0.31,-0.213,0.06,0.747,0.23,0.162,0.091,0.006,0.184,-0.155,0.404,-0.204,0.392,-0.043,-0.352,-0.253,0.484,-0.406,-0.507,-0.294,-0.269,0.407,-0.227,-0.034,-0.206,0.005,-0.137,-0.371,0.24,-0.097,-0.082,0.076,-0.314,-0.219,0.369,0.134,-0.095,0.252,-0.116,0.167,0.157,-0.152,-0.601,0.112,0.141,-0.221,-0.125,-0.466,-0.286,-0.125,-0.127,0.142,0.454,-0.123,0.157,0.285,-0.282,-0.27,-0.1,-0.539,0.646,-0.577,0.089,-0.375,0.272,-0.085,-0.358,0.128,-0.108,0.259,-0.311,0.263,0.057,-0.078,-0.206,0.031,-0.166,-0.115,0.055,0.707,-0.158,-0.135,0.857,-0.171,-0.263,0.082,0.486,0.464,0.208,0.174,0.552,0.027,-0.348,-0.215,-0.208,-0.288,0.49,0.028,0.156,0.39,0.227,0.245,-0.005,-0.206,-0.08,0.02,-0.17,0.049,-0.033,-0.07,-0.342,0.163,0.063,-0.299,-0.037,-0.053,0.204,-0.201,0.103,0.34,0.267,-0.364,-0.048,-0.572,-0.042,0.056,-0.013,-0.092,0.11,0.054,0.128,0.163,-0.574,-0.227,-0.02,0.203,0.198,-0.338,-0.218,0.312,0.005,-0.08,0.598,-0.208,0.227,0.109,0.018,0.151,0.3,0.525,0.064,-0.242,-0.109,-0.131,-0.315,0.219,0.219,-0.103,-0.092,-0.227,-0.354,0.369,0.183,-0.004,0.114,-0.41,0.358,0.085,-0.019,-0.424,-0.043,-0.029,0.103,0.116,-0.101,0.107,-0.153,-0.467,-0.239,0.84,0.175,0.018,0.602,0.186,0.083,-0.603,0.191,-0.244,-0.291,0.014,0.522,-0.057,-0.095,0.481,0.496,0.12,0.484,0.038,0.192,-0.283,0.23,-0.22,-0.001,-0.054,0.21,0.138,0.649,-0.425,0.308,-0.04,-0.1,0.284,-0.163,0.322,-0.484,-0.37,0.155,0.022,-0.217,0.306,-0.227,-0.122,0.044,0.002,-0.185,-0.594,-0.198,0.159,0.277,-0.005,-0.632,-0.361,-0.25,0.31,0.087,0.106,0.408,-0.052,0.183,-0.134,-0.789,-0.195,0.045,0.26,0.164,-0.182,-0.14,0.682,0.158,-0.228,-1.119,-0.185,-0.296,0.167,0.265,-0.131,0.652,-0.031,0.258,0.112,0.13,-0.405,0.102,-0.101,0.197,-0.126
majesty,0.615,-0.182,0.162,-0.156,0.404,-0.153,-0.229,0.438,-0.138,-0.432,-0.132,0.202,0.059,0.131,0.361,-0.21,-0.058,0.198,0.096,0.189,0.172,-0.063,0.051,0.046,0.131,0.538,0.055,0.044,-0.405,-0.088,-0.106,-0.21,0.08,0.474,-0.322,-0.238,0.041,-0.042,-0.61,-0.001,0.281,-0.598,0.336,-0.448,-0.213,-0.372,0.07,0.24,0.356,0.031,-0.279,0.205,-0.349,-0.077,0.16,-0.055,-0.028,-0.02,0.209,-0.363,-0.045,-0.284,0.311,0.081,-0.204,0.267,0.531,-0.124,-0.509,0.618,0.183,0.084,0.015,0.001,0.17,-0.118,0.064,0.16,0.103,0.019,0.287,0.135,0.061,0.275,-0.449,0.144,0.104,0.11,0.315,0.712,-0.128,-0.019,-0.345,-0.127,-0.037,-0.336,-0.334,-0.199,-0.095,-0.3,-0.251,-0.428,-0.079,0.024,-0.477,-0.068,-0.165,0.173,-0.064,-0.274,0.182,0.014,0.098,-0.292,-0.051,0.395,-0.288,-0.032,-0.371,0.082,0.133,0.245,0.504,0.299,0.12,0.196,-0.088,-0.053,0.114,-0.219,0.629,0.24,-0.013,-0.021,-0.023,0.071,0.404,-0.245,0.09,-0.205,0.234,0.556,-0.479,-0.474,0.243,-0.07,-0.013,-0.033,-0.431,0.09,0.05,0.214,-0.138,-0.541,0.228,-0.19,-0.118,0.394,0.05,0.056,0.01,0.517,0.078,0.48,-0.256,0.139,0.261,0.484,0.099,-0.486,-0.529,-0.247,0.332,-0.02,-0.076,0.369,0.138,0.056,-0.202,-0.164,-0.023,0.366,-0.377,-0.329,0.316,0.027,0.533,-0.147,0.051,0.128,-0.221,0.213,0.525,-0.198,0.05,-0.038,0.373,-0.46,0.075,-0.156,0.097,0.216,0.106,0.14,-0.287,0.41,-0.084,-0.262,0.001,0.126,-0.284,0.223,0.151,-0.277,-0.149,-0.21,0.115,-0.224,-0.018,-0.15,0.142,0.067,0.04,0.519,-0.741,0.36,0.182,0.134,-0.054,-0.026,-0.366,-0.295,0.008,-0.101,-0.202,0.068,0.168,0.028,-0.194,0.03,-0.263,-0.281,0.27,0.446,-0.128,0.371,0.007,-0.548,-0.157,-0.087,-0.091,0.056,0.21,-0.133,-0.084,-0.402,0.049,0.082,0.087,0.021,-0.127,0.112,0.416,-0.06,-0.218,0.147,0.413,0.126,0.046,-0.009,-0.183,-0.207,0.282,-0.067,0.031,0.198,0.319,0.272,0.07,-0.368,-0.292,0.665,-0.029,0.124,0.416,-0.392,-0.116,-0.76,0.259,-0.05,-0.12,0.093,0.041,-0.171,0.102,-0.067,-0.02,0.122,-0.212,0.009,-0.525,0.118,-0.133,-0.211,0.285,0.447,-0.058,0.369,-4.959,-0.171,0.048,-0.109,0.186,-0.02,0.114,0.042,-0.323,-0.26,0.739,-0.004,0.205,0.22,0.08,-0.102,0.393,-0.382,-0.228,0.327,-0.35,-0.586,0.276,-0.315,-0.09,0.116,-0.328,-0.084,-0.581,-0.325,-0.403,0.179,0.052,-0.455,0.131,-0.228,0.302,0.181,0.613,-0.269,-0.163,-0.876,-0.117,0.057,-0.275,0.07,-0.086,-0.211,0.007,0.137,-0.32,0.054,0.048,-0.289,-0.093,0.193,-0.124,0.685,-0.441,-0.042,0.354,-0.344,-0.26,0.566,0.056,0.069,-0.679,-0.011,0.239,0.313,0.096,-1.009,0.266,-0.826,-0.331,-0.368,-0.436,-0.239,0.35,-0.27,-0.022,0.065,0.359,0.501,0.045,0.006,-0.19,0.017,-0.149,0.453,-0.432,-0.177,-0.074,0.109,0.316,-0.239,0.199,-0.204,0.335,-0.068,-0.178,-0.163,-0.062,0.152,0.127,-0.003,-0.433,0.126,-0.024,0.056,0.214,-0.297,0.164,-0.048,-0.038,-0.05,0.055,0.547,0.187,0.08,-0.315,0.298,-0.537,0.245,-0.679,0.064,-0.016,0.234,-0.665,-0.01,0.15,-0.169,0.05,-0.502,0.263,-0.009,-0.366,-0.184,-0.561,0.064,0.162,-0.023,-0.044,0.062,0.189,-0.028,0.197,0.147,0.083,0.761,0.211,-0.186,0.223,0.264,-0.158,-0.499,0.221,-0.361,0.041,0.123,-0.043,-0.126,0.137,-0.013,0.331,0.546,0.037,-0.211,-0.184,-0.133,0.145,-0.144,-0.262,0.036,-0.088,0.181,-0.102,-0.458,0.288,0.54,0.143,-0.36,0.242,-0.457,-0.061,0.08,-0.46,-0.47,0.099,0.325,0.385,-0.287,-0.051,-0.622,-0.248,0.163,0.391,0.505,0.185,0.239,-0.316,0.121,0.019,-0.054,0.001,0.312,0.069,0.111,-0.386,-0.02,-0.166,-0.152,-0.489,0.063,-0.458,-0.082,0.291,0.064,-0.21,0.019,0.096,-0.2,-0.091,-0.023,-0.18,0.086,-0.15,-0.244,0.049,-0.318,-0.063,0.165,0.305,-0.124,0.334,-0.09,0.064,0.043,-0.02,0.172,-0.046,-0.249,-0.493,-0.001,0.164,0.059,0.007,-0.147,0.431,0.296,-0.485,0.094,0.388,-0.403,0.164,-0.661,0.252,0.637,0.242,0.209,-0.276,0.161,0.079,0.297,0.035,0.155,0.111,0.202,0.059,0.178,-0.228,-0.156,-0.124,0.15,-0.121,0.119,0.321,-0.269,-0.109,-0.082,0.141,0.771,-0.045,-0.27,0.575,-0.271,-0.413,-0.026,0.031,0.041,0.107,-0.373,0.042,0.635,-0.136,0.377,0.181,-0.122,-0.843,-0.113,0.183,0.362,0.036,-0.149,-0.124,-0.029,0.03,-0.254,-0.093,0.034,0.096,-0.181,0.018,0.454,0.063,-0.015,0.153,-0.492,-0.315,0.263,0.002,-0.141,0.042,0.176,0.212,-0.186,-0.271,-0.145,0.501,0.264,-0.049,0.002,-0.262,0.153,0.07,-0.122,0.531,-0.073,0.055,0.571,0.295,0.094,0.161,-0.03,0.079,0.045,-0.212,-0.11,-0.031,0.181,0.171,0.074,-0.141,0.152,0.352,-0.031,-0.081,-0.101,0.007,-0.346,-0.006,-0.261,0.194,0.122,0.045,-0.018,-0.353,-0.02,0.013,-0.087,0.319,-0.388,-0.115,0.039,-0.032,-0.454,0.135,0.014,0.109,0.001,-0.144,0.214,0.021,-0.233,0.429,0.308,0.112,-0.388,0.256,0.033,0.371,-0.238,-0.622,0.071,0.122,-0.281,-0.307,-0.289,0.043,0.073,0.525,0.024,0.333,0.064,0.066,0.1,-0.095,0.047,-0.514,-0.343,-0.095,-0.172,-0.28,0.256,-0.439,0.284,-0.038,-0.241,0.192,-0.186,-0.072,0.339,0.168,0.356,0.029,-0.136,-0.144,0.45,0.11,0.248,-0.404,-0.076,0.184,-0.269,0.035,0.152,0.189,0.052,0.194,-0.409,-0.216,0.473,0.289,-0.363,-0.759,-0.382,0.053,-0.17,0.128,0.096,0.492,0.079,0.571,-0.2,0.346,-0.228,0.571,-0.035,0.19,0.451
extinguish,0.047,-0.121,-0.242,-0.138,0.583,-0.551,0.15,0.448,-0.168,-0.003,-0.365,-0.109,-0.369,0.551,-0.153,0.386,-0.1,0.067,-0.125,0.48,-0.013,0.192,-0.31,0.685,0.097,0.008,-0.383,0.189,-0.122,0.018,0.52,0.231,-0.458,-0.749,-0.201,0.014,-0.184,0.32,0.096,0.157,-0.77,-0.477,0.205,-0.101,0.201,-0.375,-0.185,-0.419,-0.037,-0.298,-0.115,0.008,-0.093,0.117,0.072,0.585,-0.239,0.088,0.11,0.229,-0.221,-0.344,0.054,-0.315,0.124,-0.157,0.142,0.01,-0.282,0.306,-0.215,-0.294,-0.487,-0.07,-0.215,-0.057,0.029,-0.315,-0.128,0.13,-0.172,-0.156,-0.366,0.159,0.109,-0.189,-0.005,0.01,-0.078,0.54,-0.279,-0.35,0.365,0.015,0.287,-0.254,0.355,0.557,0.473,-0.046,0.113,0.179,-0.003,-0.143,-0.336,-0.131,0.021,-0.045,0.003,-0.233,0.439,0.061,0.096,-0.215,-0.345,0.091,0.254,0.376,0.448,-0.05,0.099,0.455,0.262,0.87,-0.135,0.096,0.132,0.576,0.218,0.046,0.448,0.518,0.308,-0.318,0.034,0.396,0.242,-0.232,0.113,-0.076,-0.195,0.369,-0.018,0.393,0.219,-0.084,-0.512,0.11,-0.042,0.229,0.214,0.107,-0.212,-0.422,-0.309,0.141,0.254,-0.017,-0.239,0.112,0.287,-0.588,0.119,0.52,0.091,-0.131,-0.217,0.373,-0.125,0.041,-0.515,-0.283,0.689,-0.2,0.517,-0.25,0.253,0.117,-0.173,0.212,-0.676,0.485,-0.284,0.04,0.248,0.376,0.134,-0.264,0.509,-0.001,-0.362,0.109,0.048,-0.031,0.215,-0.512,-0.048,-0.511,0.058,-0.224,-0.022,-0.095,0.296,0.23,-0.153,0.315,-0.328,-0.199,-0.258,-0.174,-0.265,0.087,-0.474,-0.206,-0.459,-0.179,-0.257,-0.12,0.35,-0.047,-0.054,0.076,-0.563,0.502,-0.23,1.08,0.309,-0.679,0.45,0.069,0.172,-0.352,0.186,0.083,-0.631,-0.001,-0.229,0.167,-0.135,-0.245,-0.373,0.289,0.109,0.32,-0.093,0.098,0.01,0.156,-0.13,0.076,-0.367,-0.554,-0.28,-0.734,0.536,-0.376,-0.4,0.139,-0.077,-0.013,-0.369,-0.44,0.766,0.17,-0.296,-0.611,0.15,0.138,0.319,-0.07,-0.161,0.094,0.421,-0.085,-0.443,-0.171,0.52,0.27,0.013,-0.141,0.285,0.09,-0.516,0.121,-0.341,-0.092,0.463,0.017,-0.691,-0.266,-0.512,-0.334,0.229,0.052,-0.034,0.01,0.269,0.353,0.021,-0.124,-0.72,-0.405,-0.547,0.644,-0.45,-0.188,-0.102,-0.286,-4.376,0.095,-0.06,0.223,0.277,0.065,-0.536,-0.094,-0.969,0.204,0.228,0.12,0.507,0.364,0.34,-0.361,0.07,-0.118,-0.176,0.389,-0.115,-0.379,0.31,-0.315,0.528,-0.083,0.164,0.624,-0.332,0.039,-0.123,0.06,-0.009,0.746,-0.204,0.224,-0.123,-0.127,0.285,-0.5,-0.14,-0.278,-0.048,0.438,0.106,-0.463,0.099,-0.247,-0.176,0.131,0.019,-0.178,-0.368,-0.28,0.621,0.168,0.238,0.366,0.149,-0.676,-0.119,0.44,-0.445,0.39,-0.274,0.498,-0.408,-0.609,0.114,0.011,-0.002,0.36,-0.252,-1.031,-0.082,-0.181,-0.103,-0.021,0.36,0.208,-0.655,-0.081,0.369,-0.117,0.132,-0.215,-0.308,-0.193,0.137,0.271,0.4,0.027,0.437,0.246,-0.207,0.329,-0.085,-0.179,0.423,-0.403,0.024,-0.615,0.821,-0.418,0.172,-0.121,-0.449,0.095,0.027,0.015,0.592,-0.196,0.345,-0.114,-0.047,-0.022,0.152,0.555,-0.103,-0.017,0.023,0.434,-0.589,-0.507,0.319,-0.123,-0.345,0.289,0.137,-0.305,0.172,-0.434,0.34,0.222,0.719,-0.385,-0.706,-0.299,-0.194,0.559,0.062,-0.153,-0.211,-0.173,0.43,0.379,0.053,-0.258,0.027,0.227,-0.432,-0.286,-0.422,-0.672,-0.413,0.086,0.396,0.05,-0.032,-0.541,-0.057,0.03,-0.051,-0.018,0.121,0.624,0.282,0.193,-0.435,-0.142,-0.29,-0.178,-0.507,-0.166,0.199,-0.026,-0.132,0.163,0.152,0.732,0.092,-0.075,-0.695,-0.088,0.612,0.02,0.042,-0.566,0.18,-0.009,0.068,0.087,-0.64,-0.325,-0.738,-0.451,0.032,0.197,-0.18,0.275,0.714,-0.045,-0.363,0.217,-0.09,-0.463,0.011,0.171,0.089,0.282,0.29,-0.516,-0.407,0.144,0.153,-0.026,0.202,-0.284,0.043,-0.308,-0.402,-0.095,-0.061,0.237,0.198,0.081,-0.031,0.019,-0.924,0.368,-0.217,-0.128,0.548,0.052,0.533,0.371,0.105,-0.172,-0.426,-0.049,-0.228,-0.303,0.198,-0.457,0.268,-0.362,0.507,0.201,-0.432,0.284,0.44,-0.173,-0.298,-0.822,0.354,-0.873,0.162,0.052,0.28,0.364,-0.212,0.148,-0.107,0.378,0.353,0.255,-0.328,-0.306,0.038,-0.233,0.337,-0.282,-0.038,0.09,0.328,0.053,-0.08,-0.301,-0.243,-0.454,0.247,0.67,0.339,0.214,0.441,-0.265,-0.306,0.104,0.346,0.104,0.28,-0.226,-0.22,0.001,0.147,0.369,0.095,0.299,-0.176,-0.077,-0.323,0.066,-0.034,0.107,-0.056,-0.164,0.146,-0.116,-0.261,-0.337,0.245,-0.41,0.251,0.328,-0.012,-0.343,0.18,0.189,-0.016,0.175,0.088,-0.06,0.403,-0.141,0.06,0.71,-0.276,0.061,-0.011,0.114,-0.047,0.154,0.331,0.22,-0.386,-0.185,0.342,0.086,0.172,-0.121,0.335,0.309,0.261,0.217,0.59,0.178,0.258,0.25,0.407,0.246,0.121,-0.246,0.08,-0.7,0.193,-0.523,0.217,0.464,0.699,-0.35,0.123,-0.055,0.357,-0.582,0.225,0.142,0.18,-0.072,0.085,0.12,0.065,-0.433,0.329,0.372,0.288,0.203,0.405,-0.177,0.183,0.015,-0.001,-0.152,-0.862,-0.342,0.032,-0.074,-0.238,0.04,0.041,-0.291,0.33,0.282,-0.196,-0.06,0.136,-0.106,0.384,-0.231,-0.25,-0.35,0.095,0.282,0.332,-0.047,-0.022,0.14,0.063,0.267,-0.1,-0.007,0.197,0.594,-0.467,-0.284,-0.469,0.032,-0.056,-0.45,0.033,0.136,-0.331,-0.119,0.223,0.272,-0.412,0.154,0.167,-0.024,-0.194,0.34,0.003,0.4,-0.038,0.145,-0.24,0.026,-0.17,0.211,-0.232,-0.149,0.335,0.346,0.184,0.086,-0.261,-0.455,-0.444,-0.077,0.33,0.313,0.206,-0.16,-0.139,0.143,0.476,-0.23,-0.079,-0.195,0.086,-0.199
nutrient,-0.001,0.248,-0.2,0.145,0.201,0.141,0.055,0.274,0.303,-0.345,0.167,0.205,0.11,-0.025,0.234,0.275,-0.096,0.223,0.217,0.125,-0.081,-0.003,0.167,-0.229,0.006,0.116,-0.07,0.203,-0.02,0.008,0.308,-0.08,0.386,0.43,-0.139,-0.063,-0.103,-0.352,-0.49,-0.197,-0.241,-0.235,0.304,0.288,0.209,0.086,-0.34,-0.074,-0.026,-0.039,-0.066,-0.096,0.072,0.04,-0.067,0.122,0.193,-0.108,0.321,-0.196,-0.017,-0.386,0.032,0.233,-0.087,0.129,0.442,-0.021,-0.239,0.179,0.304,0.042,-0.144,0.047,0.182,0.04,-0.037,-0.074,-0.048,-0.012,-0.036,-0.092,-0.035,0.193,-0.377,0.113,0.196,0.129,0.085,0.227,0.065,0.04,-0.263,0.035,0.05,-0.059,-0.327,-0.051,0.281,-0.054,0.113,0.02,0.08,-0.036,-0.252,0.19,-0.08,-0.014,0.166,0.038,0.077,0.089,0.133,-0.035,-0.316,0.319,0.062,0.29,-0.013,0.296,0.055,0.24,-0.074,0.25,-0.148,0.294,-0.098,-0.143,0.094,0.033,-0.14,-0.398,-0.097,-0.12,-0.122,-0.419,0.168,0.118,0.316,-0.16,-0.372,0.518,0.473,-0.269,0.074,-0.257,0.242,0.183,-0.131,0.05,0.426,0.17,-0.587,-0.28,-0.125,0.051,0.022,0.231,-0.191,-0.167,0.23,0.133,0.136,-0.012,-0.054,-0.23,0.177,0.141,0.028,-0.186,-0.181,-0.264,0.335,0.32,0.091,0.072,0.053,0.204,-0.327,0.109,0.083,0.094,-0.093,-0.316,0.279,0.069,0.379,-0.078,0.33,0.276,-0.257,-0.417,0.202,-0.081,-0.033,-0.323,0.149,-0.209,-0.059,-0.512,0.305,0.299,0.099,0.078,-0.235,-0.014,0.158,-0.406,0.153,-0.093,-0.239,0.162,0.202,-0.411,0.2,-0.326,0.182,0.032,0.051,0.084,0.297,0.064,0.32,0.275,-0.522,0.397,0.834,0.045,0.278,0.225,-0.321,-0.255,0.11,-0.291,-0.104,0.182,0.151,-0.039,-0.049,-0.042,-0.271,-0.249,-0.039,0.224,-0.019,-0.008,0.153,-0.265,0.002,-0.39,0.024,0.087,0.185,-0.032,-0.24,0.113,-0.154,-0.058,0.517,0.027,-0.234,-0.261,0.409,-0.599,-0.066,0.156,-0.286,-0.204,0.249,-0.524,0.041,0.091,0.189,0.042,-0.226,-0.3,0.308,0.07,-0.08,-0.172,-0.293,0.337,-0.484,0.102,0.101,-0.033,-0.328,-0.094,0.143,-0.32,-0.193,0.149,-0.285,-0.072,0.068,0.002,0.048,0.217,-0.22,0.005,0.194,-0.027,-0.146,-0.135,0.196,0.387,-0.16,-0.065,-5.196,-0.076,0.103,0.056,0.297,-0.257,0.164,0.12,-0.027,-0.099,0.248,-0.028,0.092,0.083,-0.122,-0.119,0.367,-0.017,-0.172,0.372,0.235,-0.219,-0.08,-0.048,-0.572,-0.066,0.081,0.294,-0.354,-0.05,-0.337,-0.165,-0.037,0.388,0.086,-0.236,-0.109,-0.173,0.377,0.092,-0.143,0.112,-0.034,0.056,-0.107,-0.196,0.179,0.132,-0.066,0.22,0.169,0.256,0.168,-0.303,-0.027,0.184,0.307,-0.394,0.147,-0.294,0.041,-0.226,-0.129,0.203,-0.465,0.192,-0.321,-0.187,-0.124,0.152,-0.038,0.037,-0.093,-0.839,-0.265,-0.102,-0.27,-0.407,-0.057,0.049,0.261,0.021,0.557,0.309,0.166,-0.032,-0.111,-0.049,-0.416,0.408,0.03,-0.205,0.253,-0.192,0.277,0.164,0.081,-0.014,0.057,0.234,0.258,0.234,0.083,-0.342,0.287,0.199,-0.57,0.188,0.139,-0.066,0.062,-0.275,-0.152,0.177,-0.105,0.408,-0.001,0.118,0.165,-0.074,-0.393,0.004,-0.025,-0.139,-0.327,0.082,-0.074,-0.325,-0.377,0.236,-0.087,0.33,0.026,-0.077,0.054,0.006,-0.18,0.107,-0.378,-0.081,0.153,-0.205,-0.281,-0.186,-0.125,-0.245,-0.136,0.087,-0.019,0.382,0.261,-0.126,0.508,0.433,-0.548,-0.396,0.188,-0.203,0.374,-0.102,-0.055,-0.298,-0.148,0.051,-0.015,0.345,0.273,-0.315,-0.122,0.01,0.106,-0.17,-0.318,0.059,-0.314,-0.037,0.238,-0.568,-0.164,0.443,-0.002,-0.138,0.254,0.151,0.1,-0.138,-0.432,0.014,0.181,0.167,-0.024,-0.295,0.362,-0.167,-0.328,0.063,0.287,0.348,0.157,-0.19,0.034,0.269,0.136,0.254,0.312,0.017,0.189,0.152,-0.232,-0.3,0.224,-0.078,-0.008,-0.328,-0.125,0.012,0.055,0.346,-0.316,-0.17,-0.153,-0.183,0.307,-0.212,0.062,0.365,0.064,-0.118,0.074,0.222,-0.193,0.032,-0.195,-0.023,0.046,0.037,-0.314,0.229,0.237,0.067,-0.209,-0.137,-0.383,0.164,-0.105,0.179,0.224,0.035,0.168,0.331,-0.297,0.101,0.019,-0.175,0.444,-0.394,0.247,0.046,-0.062,0.202,-0.162,0.407,0.032,0.493,-0.076,-0.238,-0.063,0.091,0.005,-0.103,0.23,0.022,0.116,0.17,0.088,0.141,0.18,-0.155,-0.246,-0.042,-0.089,0.221,-0.104,-0.319,0.356,-0.157,-0.433,-0.158,0.06,-0.102,0.052,-0.167,-0.14,-0.139,0.152,0.256,0.024,0.007,-0.077,-0.061,-0.229,0.139,-0.124,0.006,-0.237,-0.061,-0.078,-0.024,-0.204,-0.114,-0.135,-0.062,0.163,0.496,-0.177,-0.066,-0.232,-0.321,-0.254,0.045,0.077,0.124,-0.017,0.068,-0.005,-0.034,-0.365,-0.181,0.088,0.026,0.026,-0.231,0.182,0.21,0.247,0.307,0.155,-0.064,-0.129,0.148,0.347,-0.015,-0.296,0.095,0.167,-0.008,-0.215,-0.104,-0.096,0.026,-0.122,0.006,-0.297,-0.273,-0.124,-0.013,-0.313,0.169,-0.048,0.15,0.171,0.071,0.005,0.069,-0.261,0.068,-0.143,-0.059,-0.087,-0.153,-0.133,-0.735,-0.224,0.3,0.144,0.076,0.077,0.047,0.025,-0.323,-0.04,0.002,-0.05,0.09,0.324,-0.365,0.139,0.211,0.22,-0.054,0.105,0.023,-0.158,0.178,0.295,-0.154,-0.256,-0.398,0.059,-0.113,0.076,-0.179,0.155,0.194,-0.079,0.039,0.087,-0.107,-0.545,-0.185,0.504,0.166,-0.327,0.196,0.141,0.031,0.026,0.003,0.109,-0.422,0.016,0.078,0.058,-0.02,-0.226,-0.179,-0.262,0.347,-0.081,0.081,-0.009,0.164,-0.065,-0.113,-0.194,0.012,-0.067,-0.001,-0.001,-0.354,-0.023,0.458,0.284,-0.533,-0.149,-0.007,0.326,-0.133,0.07,0.083,0.216,-0.047,-0.062,0.221,0.34,-0.097,0.359,0.284,0.046,-0.026
bark,0.086,0.248,-0.047,-0.175,0.088,0.139,0.309,0.353,-0.205,-0.174,0.019,-0.043,0.018,0.136,-0.337,0.152,-0.2,0.171,-0.039,-0.059,0.345,-0.226,-0.446,-0.229,0.531,0.522,-0.031,0.137,-0.137,0.01,-0.323,-0.01,0.404,0.287,-0.153,-0.324,-0.169,-0.289,-0.382,-0.021,0.247,-0.255,0.314,0.131,0.365,-0.119,0.382,0.063,0.534,-0.088,-0.425,0.405,-0.099,0.012,-0.336,0.12,0.313,-0.115,0.439,-0.233,-0.411,-0.319,0.129,0.141,-0.224,0.278,0.402,-0.007,-0.478,0.065,0.408,0.26,-0.313,0.011,0.059,0.178,-0.102,-0.103,-0.018,-0.06,0.152,-0.073,-0.018,-0.138,-0.082,0.316,0.037,0.13,0.132,0.216,0.027,-0.149,-0.412,0.224,0.113,-0.234,-0.421,0.12,0.307,-0.382,0.2,0.442,0.148,0.143,-0.541,0.077,0.126,-0.198,-0.187,-0.17,0.156,-0.058,0.055,-0.146,-0.365,0.443,-0.032,-0.466,-0.207,-0.059,0.018,0.164,-0.086,0.439,0.043,0.292,-0.296,-0.063,-0.008,0.217,0.059,0.152,0.083,-0.077,0.136,0.032,0.13,0.121,0.484,-0.303,-0.793,0.615,-0.08,0.068,0.028,-0.211,-0.042,-0.052,-0.266,0.066,0.165,0.157,-0.256,-0.562,-0.324,0.238,0.098,0.304,0.025,-0.09,0.456,0.079,-0.005,0.28,-0.162,-0.015,0.153,0.032,0.029,-0.29,-0.347,-0.205,0.445,0.184,-0.604,0.118,-0.066,-0.011,-0.291,0.036,-0.006,0.838,0.094,-0.59,-0.026,0.11,0.457,0.069,0.228,0.103,-0.259,-0.462,0.34,0.14,0.258,-0.559,0.18,-0.439,0.225,-0.386,0.132,0.203,0.212,0.03,-0.128,0.426,0.244,-0.288,0.233,-0.235,-0.16,0.213,0.195,-0.199,0.138,-0.165,0.281,0.04,0.065,-0.059,0.051,-0.028,0.014,0.337,-0.567,0.654,0.73,-0.003,0.27,0.68,-0.092,-0.034,-0.07,-0.321,-0.388,0.214,0.067,-0.226,0.232,0.009,-0.203,-0.445,0.186,0.338,0.16,-0.105,0.292,-0.261,0.171,-0.105,-0.113,-0.04,0.032,-0.16,0.037,-0.303,-0.156,-0.267,0.292,0.185,0.244,-0.042,0.572,0.008,-0.146,0.256,0.005,0.233,0.427,-0.222,0.056,-0.248,0.053,-0.101,0.274,-0.244,0.338,-0.21,-0.231,-0.108,-0.269,-0.112,-0.146,0.059,0.111,-0.086,-0.094,-0.485,0.079,-0.096,-0.031,0.318,0.006,0.125,0.07,-0.075,0.039,0.283,0.101,0.074,-0.126,0.064,-0.387,-0.182,-0.14,0.694,-0.384,-0.44,-4.997,-0.241,-0.157,-0.163,0.274,-0.114,0.056,-0.023,-0.557,-0.132,0.126,0.029,0.281,0.029,-0.054,-0.125,0.352,-0.293,-0.165,0.416,-0.245,-0.199,0.263,-0.261,-0.289,0.488,0.478,0.158,-0.33,-0.157,-0.464,-0.209,0.071,0.435,-0.199,-0.267,0.079,-0.178,0.997,0.126,-0.155,-0.282,0.133,0.634,0.387,-0.174,0.255,-0.312,-0.013,0.463,0.3,0.135,-0.171,-0.425,0.259,0.236,0.187,-0.299,-0.341,-0.352,0.249,-0.052,-0.271,0.088,-0.587,0.051,-0.192,-0.673,-0.06,-0.119,-0.005,-0.364,0.106,-0.843,0.117,-0.394,-0.542,-0.146,0.154,-0.243,0.196,-0.081,0.335,0.232,-0.046,0.012,0.275,-0.108,-0.111,0.232,-0.258,-0.014,0.142,0.059,0.092,0.386,0.343,-0.191,0.374,0.151,0.286,-0.146,0.024,-0.069,0.206,-0.271,-0.573,0.101,0.171,0.067,0.246,-0.319,0.152,0.091,-0.048,0.162,-0.017,0.086,0.185,-0.247,-0.17,0.1,0.016,-0.014,0.155,0.003,-0.031,-0.167,-0.642,-0.034,0.085,0.069,0.431,-0.05,-0.164,0.116,-0.385,-0.714,-0.284,0.09,-0.126,-0.08,-0.331,0.426,0.573,-0.308,-0.003,-0.319,-0.188,0.04,-0.011,-0.806,0.275,0.235,-0.087,-0.646,0.174,-0.267,-0.159,-0.174,0.155,-0.248,0.075,0.009,0.208,0.33,0.178,-0.203,-0.193,-0.007,0.073,-0.163,-0.582,0.16,-0.21,0.401,0.149,-0.638,0.119,0.131,0.076,0.133,-0.212,0.112,0.099,-0.011,-0.48,-0.111,0.109,0.394,0.389,-0.407,0.132,-0.369,-0.189,-0.008,0.216,0.338,0.331,-0.061,-0.067,-0.186,0.049,0.117,0.165,-0.045,0.232,0.036,-0.702,-0.132,0.886,-0.216,-0.71,-0.223,-0.213,-0.037,0.071,0.207,-0.436,0.082,-0.252,-0.259,0.278,-0.099,-0.023,0.239,-0.734,-0.143,-0.009,0.129,-0.177,-0.261,0.345,0.116,0.312,0.063,-0.827,0.194,0.213,0.172,-0.035,0.159,-0.871,0.101,0.088,-0.087,-0.012,-0.09,0.067,0.376,-0.098,0.269,0.305,-0.096,0.544,-0.023,0.063,0.293,0.023,0.199,-0.104,0.376,-0.199,0.628,0.02,-0.26,-0.183,-0.07,-0.173,-0.075,-0.254,0.262,0.377,0.398,-0.118,0.209,-0.159,0.114,-0.123,-0.165,0.034,0.431,-0.21,-0.32,0.408,-0.015,-0.241,-0.289,0.024,-0.399,-0.094,0.255,0.04,0.437,0.173,0.58,0.29,0.096,-0.002,-0.006,-0.181,0.372,0.183,-0.01,-0.04,0.044,-0.047,0.017,-0.106,0.09,0.067,0.208,0.101,0.485,-0.346,0.038,0.293,-0.465,-0.111,0.193,0.107,-0.021,0.1,0.185,0.249,-0.033,-0.424,-0.107,0.193,0.185,0.037,-0.016,0.053,0.247,0.409,0.106,0.684,0.003,0.103,-0.008,0.477,-0.006,-0.478,-0.236,0.384,-0.159,-0.134,-0.068,0.093,0.559,0.301,-0.081,0.013,-0.177,0.106,-0.249,0.041,0.425,-0.439,-0.032,0.023,0.238,-0.088,0.265,-0.332,0.071,-0.044,0.383,-0.384,-0.301,-0.393,-0.454,-0.654,0.159,0.071,-0.069,0.255,0.31,0.321,-0.188,-0.389,-0.081,-0.314,0.048,0.481,-0.366,-0.107,-0.055,-0.091,-0.184,0.278,0.181,-0.125,0.045,0.154,-0.421,-0.211,-0.188,-0.154,-0.077,0.037,0.363,0.156,0.087,0.055,0.171,0.025,-0.221,-0.108,-0.194,0.074,0.285,-0.254,0.164,-0.338,-0.02,0.113,-0.177,-0.082,-0.464,-0.056,0.102,-0.175,0.303,0.059,0.122,-0.343,0.126,-0.235,-0.05,0.249,0.093,-0.037,-0.073,-0.187,-0.14,-0.028,0.2,0.031,-0.643,-0.139,0.105,0.054,-0.201,-0.493,0.208,-0.051,-0.087,0.074,-0.178,0.202,-0.133,-0.095,-0.054,0.172,-0.225,0.229,0.179,0.039,0.08
rest,0.112,-0.018,0.071,-0.337,0.169,0.046,0.326,0.362,0.281,-0.608,-0.057,0.167,0.157,-0.122,0.104,-0.025,0.185,-0.087,0.394,0.062,0.343,-0.094,-0.24,-0.288,-0.025,-0.109,-0.227,0.17,-0.458,0.128,-0.056,-0.408,-0.096,0.715,-0.619,-0.568,-0.144,0.257,-0.497,0.443,0.24,-0.518,0.381,0.053,0.15,-0.187,0.208,0.012,-0.717,-0.248,-0.353,0.1,-0.133,0.297,0.156,-0.041,0.371,0.238,0.319,-0.233,0.615,-0.048,0.405,0.152,-0.064,0.147,0.508,-0.117,-0.004,0.294,-0.095,0.654,-0.253,0.056,0.403,-0.102,0.073,0.047,-0.016,-0.361,0.341,0.289,-0.307,0.186,-0.084,-0.212,-0.338,-0.103,0.275,0.619,0.077,-0.058,-0.23,0.071,0.195,-0.731,-0.437,0.151,0.416,-0.153,-0.487,0.415,-0.255,-0.089,-0.289,-0.055,-0.293,-0.033,0.115,-0.653,-0.056,0.121,0.057,0.196,0.124,0.526,0.036,0.063,-0.323,0.115,-0.416,0.48,0.269,0.058,-0.044,0.399,0.036,0.059,-0.301,-0.098,0.798,0.291,-0.188,0.015,-0.153,0.193,0.632,0.129,0.118,-0.246,-0.38,0.947,-0.293,-0.057,-0.038,-0.108,-0.141,-0.304,-0.428,0.454,0.096,0.078,0.021,-0.387,-0.273,0.152,-0.124,0.141,-0.565,0.01,0.038,0.164,0.317,0.56,-0.305,0.046,0.209,0.168,0.293,-0.031,-0.861,-0.302,0.465,0.29,-0.238,0.186,0.204,-0.224,-0.406,0.159,-0.407,-0.125,0.06,-0.016,0.563,-0.059,0.42,-0.547,0.455,0.173,-0.438,-0.627,0.205,-0.077,0.298,-0.526,0.069,-0.531,-0.362,-0.316,0.139,-0.355,0.312,0.463,-0.258,1.179,-0.031,-0.209,0.082,-0.199,-0.5,0.32,-0.28,-0.309,-0.062,-0.403,0.045,-0.173,0.056,-0.186,0.183,-0.057,0.019,0.418,-0.571,0.469,0.37,-0.155,0.228,0.153,-0.313,-0.404,0.118,0.071,0.235,0.223,0.087,-0.161,0.048,0.221,-0.143,-0.578,0.335,0.406,-0.197,0.188,0.537,-0.358,-0.243,-0.024,-0.158,-0.845,0.018,-0.35,-0.145,-0.579,-0.159,0.054,0.086,0.139,-0.092,-0.162,0.737,-0.137,-0.224,-0.105,0.108,0.173,0.139,-0.174,-0.013,-0.332,0.059,-0.633,-0.388,-0.005,0.615,-0.148,0.093,0.365,-0.116,0.221,-0.08,0.357,0.301,-0.34,0.243,-0.231,0.0,-0.371,-0.233,0.08,0.147,0.151,0.45,0.022,0.17,0.069,0.229,0.048,-0.113,-0.189,0.107,-0.16,0.343,0.202,-0.187,0.064,-4.656,-0.276,-0.241,-0.095,0.157,-0.079,0.004,-0.104,-0.844,-0.066,0.755,-0.22,0.162,0.641,0.482,0.038,0.103,0.189,-0.463,0.67,-0.044,-0.155,0.259,-0.295,-0.503,0.983,0.029,0.311,-0.724,-0.12,-0.202,-0.053,0.273,-0.011,0.143,0.093,-0.352,0.011,0.931,0.438,0.262,-0.096,0.103,0.422,-0.115,0.338,0.293,-0.009,0.027,0.34,0.318,-0.069,0.121,-0.079,-0.09,0.146,-0.12,0.358,0.075,-0.399,0.158,-0.334,-0.246,0.228,-0.417,0.31,-0.099,0.127,0.255,-0.006,-0.156,-0.017,0.072,-1.055,-0.398,0.142,-0.528,-0.197,-0.015,0.162,0.378,-0.309,0.281,0.014,-0.041,0.156,-0.153,-0.477,-0.488,0.375,-0.287,-0.223,0.336,-0.208,0.37,0.178,0.098,-0.637,0.324,-0.032,-0.336,-0.0,0.362,-0.151,-0.083,-0.156,-0.753,0.203,0.035,0.206,0.783,0.066,0.408,0.186,0.1,-0.039,-0.145,0.186,0.118,-0.117,-0.222,-0.088,-0.434,-0.62,-0.432,0.001,0.059,-0.075,-0.6,0.159,0.11,0.291,0.209,-0.211,-0.217,-0.484,-0.481,0.22,0.004,0.205,0.33,-0.15,-0.355,0.506,0.314,0.271,0.427,-0.014,0.002,0.712,0.391,-0.241,0.155,0.24,-0.335,-0.589,0.384,-0.28,0.13,-0.263,-0.424,0.056,-0.895,0.04,0.415,0.503,-0.004,-0.444,0.059,-0.246,0.548,-0.148,-0.083,0.09,-0.044,-0.231,-0.29,-0.418,-0.042,0.582,0.154,0.175,0.293,-0.284,0.141,0.139,-0.712,-0.247,0.044,0.661,0.194,-0.472,0.16,-0.248,-0.233,0.308,0.39,0.544,0.116,0.387,0.026,-0.786,-0.275,-0.057,0.679,-0.131,0.615,0.385,-0.752,-0.032,-0.421,-0.356,-0.384,-0.445,-0.116,-0.205,0.187,0.215,-0.09,-0.331,0.294,-0.27,-0.146,-0.068,0.07,-0.02,-0.503,-0.74,0.116,-0.058,-0.106,-0.088,0.167,0.221,0.469,-0.252,-0.388,0.13,0.144,0.175,0.194,-0.322,-0.222,-0.12,-0.114,0.171,0.023,0.126,0.326,0.693,-0.289,0.01,-0.259,-0.397,-0.002,-0.176,-0.12,0.123,0.117,0.141,0.106,0.289,0.127,0.5,-0.346,0.326,0.04,-0.229,0.353,0.244,-0.287,-0.131,0.218,0.336,0.197,-0.19,0.066,-0.046,-0.223,0.15,0.737,0.893,0.169,-0.009,0.335,-0.061,-0.392,-0.077,-0.054,0.182,0.446,0.071,0.14,0.178,0.12,0.108,-0.187,-0.173,-0.555,0.177,-0.685,0.271,0.165,-0.0,-0.163,-0.108,0.217,-0.281,-0.048,-0.242,0.189,-0.224,-0.271,0.438,-0.164,-0.51,-0.263,-0.457,-0.216,0.229,-0.042,-0.041,0.014,0.071,0.538,0.026,-0.624,-0.041,0.307,0.416,0.072,-0.302,-0.046,0.476,0.298,0.044,0.363,-0.182,-0.357,-0.321,0.259,0.033,0.746,-0.114,-0.129,-0.233,-0.295,0.197,0.14,0.695,0.101,0.04,-0.463,-0.616,0.209,-0.249,0.072,0.141,-0.583,-0.708,0.006,0.102,-0.101,-0.24,0.067,-0.063,0.255,0.005,-0.264,-0.165,0.117,0.22,-0.333,0.806,0.207,0.204,0.081,0.115,0.128,-0.153,0.024,-0.359,-0.109,-0.318,0.415,-0.824,-0.079,-0.061,0.192,-0.057,0.205,-0.113,-0.257,-0.316,0.253,-0.281,0.16,-0.291,0.017,-0.071,0.854,0.682,0.288,-0.209,0.071,0.197,-0.041,0.08,-0.459,-0.166,0.026,-0.04,-0.42,0.552,0.218,0.121,-0.056,-0.288,-0.048,-0.993,-0.107,0.024,0.136,0.29,-0.059,-1.129,-0.42,0.462,0.095,0.401,-0.033,-0.129,0.236,-0.137,-0.199,0.204,0.567,0.027,-0.207,-0.63,-0.244,-0.002,0.302,-0.409,-1.392,-0.095,-0.205,-0.162,0.101,0.05,0.831,-0.33,0.354,-0.161,0.131,0.028,0.038,0.079,0.241,-0.11
hold,0.179,-0.306,0.256,-0.413,0.504,0.06,0.08,-0.012,-0.023,-0.133,-0.176,0.223,-0.274,0.423,-0.195,-0.511,-0.14,-0.119,0.83,-0.016,0.341,-0.092,-0.658,-0.129,-0.072,0.392,-0.451,0.143,-0.375,0.277,-0.177,-0.141,-0.051,0.552,-0.763,-0.033,0.136,0.434,-0.209,0.137,0.223,-0.346,0.24,-0.135,0.019,-0.276,0.029,-0.257,-0.376,-0.245,-0.75,0.362,-0.038,-0.111,-0.222,-0.113,0.196,0.031,0.063,-0.474,-0.453,-0.405,0.498,0.187,0.203,0.123,0.159,0.434,-0.517,0.201,-0.341,0.578,-0.383,-0.054,-0.091,0.058,-0.028,0.332,0.064,0.03,0.381,0.512,-0.211,0.532,-0.048,-0.3,-0.066,0.082,-0.116,0.849,-0.071,0.074,-0.258,-0.277,0.201,-0.448,-0.05,0.189,0.336,-0.131,0.38,-0.503,0.007,-0.181,-0.548,-0.04,-0.381,0.397,-0.173,-0.426,0.097,0.078,0.115,-0.246,0.245,0.461,-0.234,0.088,0.002,-0.052,-0.299,0.263,-0.077,0.457,0.052,0.371,-0.232,0.434,-0.058,-0.227,0.693,0.107,0.302,-0.176,-0.202,-0.277,0.37,-0.008,0.46,-0.499,-0.351,0.743,0.296,0.29,0.437,-0.085,-0.297,-0.072,-0.396,0.517,-0.115,0.083,0.116,-0.76,-0.368,-0.333,-0.089,0.202,-0.206,0.181,0.124,0.014,0.098,0.458,0.028,-0.029,0.55,0.272,0.091,-0.085,-0.316,-0.4,0.702,0.252,-0.162,0.146,-0.168,-0.124,-0.129,0.166,0.03,0.337,0.207,-0.37,-0.158,0.344,0.642,-0.619,0.339,0.45,-0.737,-0.533,-0.504,0.021,0.068,-0.694,0.011,0.03,-0.076,-0.026,0.406,-0.037,0.378,0.298,0.147,0.767,0.107,-0.14,-0.085,-0.186,-0.387,0.579,-0.244,-0.359,0.039,-0.394,0.119,0.02,0.022,0.042,0.544,-0.14,-0.104,0.17,-0.758,0.574,0.185,-0.201,0.135,-0.451,-0.431,-0.206,0.11,-0.229,0.306,0.378,0.029,-0.114,-0.047,-0.079,-0.009,-0.568,0.189,0.493,0.143,0.058,0.654,-0.215,-0.341,-0.284,-0.07,-0.683,-0.069,-0.293,-0.248,-0.919,-0.097,-0.144,0.074,0.421,0.334,0.172,1.097,-0.227,-0.383,-0.13,-0.245,0.21,0.289,-0.441,-0.044,-0.531,0.529,-0.099,-0.881,-0.054,0.3,-0.077,0.072,-0.127,-0.244,-0.349,-0.37,-0.081,0.764,-0.634,0.222,-0.554,-0.357,-0.171,0.171,0.016,-0.02,0.041,0.192,0.064,0.044,0.436,-0.189,0.005,-0.702,-0.276,0.15,-0.408,0.158,0.029,-0.127,-0.414,-4.573,-0.125,-0.279,-0.17,0.18,-0.272,0.229,0.168,-0.666,-0.092,0.372,-0.51,-0.021,0.381,0.462,0.459,0.384,-0.087,-0.503,0.675,-0.781,-0.355,0.487,-0.36,0.009,0.846,-0.001,-0.009,-0.368,-0.431,-0.125,0.032,0.212,-0.118,-0.128,0.216,-0.186,-0.459,0.824,-0.152,-0.234,-0.042,0.214,0.536,0.454,-0.267,0.157,-0.148,-0.14,0.248,-0.021,-0.369,0.102,-0.355,0.187,0.342,-0.056,0.601,-0.103,0.223,0.047,-0.397,-0.496,0.392,-1.112,0.028,-0.217,-0.166,0.197,-0.152,-0.184,0.406,0.045,-1.018,-0.532,0.383,-0.835,-0.186,0.25,0.145,-0.513,0.027,0.17,0.403,-0.167,-0.162,0.246,-0.384,-0.494,0.443,-0.169,0.327,0.6,0.037,-0.231,0.164,0.428,-0.513,0.112,0.273,-0.071,-0.046,0.407,-0.127,0.833,-0.196,-0.801,0.665,-0.066,0.51,0.433,-0.083,0.643,-0.264,-0.128,-0.195,-0.055,0.437,-0.118,-0.104,-0.377,0.611,-0.339,-0.499,-0.277,-0.16,-0.155,-0.106,-0.52,0.037,0.076,0.116,0.146,-0.591,-0.225,-0.141,-0.45,-0.134,-0.204,0.054,0.236,0.089,-0.402,0.166,0.02,-0.194,0.331,0.345,-0.058,0.927,0.315,-0.848,0.351,0.148,-0.088,-0.721,0.412,-0.334,0.399,-0.354,-0.15,-0.144,0.366,0.191,0.38,0.518,-0.061,-0.049,-0.334,-0.467,0.343,-0.522,0.085,0.473,-0.071,-0.445,-0.262,-0.496,-0.125,0.21,0.363,-0.042,-0.01,-0.221,0.395,0.204,-0.572,0.05,0.241,0.568,0.125,-0.244,-0.187,-0.499,-0.345,-0.038,0.337,0.55,0.213,0.566,-0.225,-0.33,-0.35,-0.003,0.686,0.149,0.496,0.477,0.001,-0.085,0.38,-0.522,-0.233,-0.312,-0.702,-0.05,0.191,-0.406,-0.195,-0.318,0.345,-0.453,0.285,0.012,0.186,0.13,-1.13,-0.462,0.138,0.016,-0.433,-0.673,0.614,0.28,0.192,-0.068,-0.642,0.22,-0.049,-0.028,-0.003,-0.653,-0.151,-0.243,0.259,0.061,-0.212,0.267,0.556,0.656,0.578,0.011,-0.288,-0.204,0.186,0.183,0.262,0.266,0.038,0.184,0.024,0.812,0.29,0.663,-0.259,0.405,0.251,-0.454,0.312,0.104,-0.319,-0.186,0.5,0.04,0.252,0.168,0.057,-0.119,-0.23,0.072,0.335,0.525,0.356,-0.334,0.747,-0.125,-0.418,-0.035,0.249,-0.222,0.061,0.014,0.308,0.145,-0.23,0.765,0.098,0.034,-0.365,0.142,-0.277,0.191,0.219,0.156,-0.265,0.129,0.16,-0.356,0.283,0.476,-0.129,-0.468,0.018,0.515,0.134,-0.238,0.284,-0.729,-0.425,0.353,-0.255,-0.518,0.033,0.376,0.658,-0.043,-0.292,-0.155,0.238,0.277,0.197,0.229,-0.202,0.521,0.021,0.038,0.337,-0.282,-0.198,0.134,-0.112,0.207,0.275,-0.298,-0.207,-0.198,-0.019,0.268,0.269,0.805,0.243,0.182,-0.308,0.12,0.198,-0.102,0.593,0.362,-0.467,-0.427,-0.028,0.19,0.204,0.112,-0.035,-0.116,0.359,-0.054,-0.037,-0.299,-0.393,0.088,-0.07,0.723,0.184,0.14,0.453,-0.108,-0.019,-0.297,0.37,-0.341,-0.155,-0.33,0.646,-0.669,-0.022,0.001,0.229,0.06,0.131,0.006,-0.195,-0.274,0.249,-0.229,-0.428,-0.063,0.203,0.098,0.267,-0.007,0.286,-0.262,0.107,0.375,-0.272,-0.326,-0.369,0.03,0.419,0.138,-0.361,0.429,-0.744,0.02,0.338,-0.131,-0.002,-0.466,-0.104,-0.012,-0.121,0.414,-0.264,-0.237,-0.34,0.318,-0.312,0.071,0.498,0.157,0.78,-0.652,-0.629,0.243,0.229,-0.166,-0.188,-0.386,-0.022,0.21,-0.184,-0.412,-0.193,0.018,-0.66,-0.121,-0.209,-0.413,0.494,-0.144,0.277,-0.226,-0.036,0.225,0.205,-0.021,-0.014,0.26
drainage,0.515,0.414,-0.339,0.04,0.539,0.374,-0.076,0.601,0.112,-0.365,-0.139,0.303,0.04,0.2,0.1,0.311,0.077,0.035,0.212,0.361,0.114,-0.044,0.132,0.246,-0.077,0.179,-0.022,0.059,-0.096,-0.093,0.544,-0.211,0.475,0.252,0.021,-0.503,-0.124,0.013,-0.355,-0.03,0.02,0.045,-0.015,-0.022,0.482,-0.109,0.056,-0.283,0.04,-0.234,-0.009,0.002,0.03,0.054,-0.201,0.197,0.018,0.06,0.429,-0.075,0.328,-0.349,-0.049,0.322,-0.185,0.092,0.003,0.291,-0.035,0.138,0.413,0.054,-0.288,-0.021,-0.036,0.11,0.158,-0.087,-0.138,-0.064,0.019,-0.169,-0.023,0.166,-0.048,0.118,0.065,0.37,0.309,-0.287,-0.009,-0.081,-0.142,-0.177,0.284,-0.375,-0.301,0.037,0.628,-0.748,-0.213,0.881,-0.166,0.132,-0.227,-0.032,0.001,-0.017,-0.092,-0.503,-0.061,0.135,0.19,-0.329,-0.11,0.205,0.081,-0.003,-0.173,0.282,0.1,0.243,0.227,0.314,-0.04,0.367,-0.078,-0.072,0.405,0.021,0.144,0.249,0.032,-0.069,-0.156,-0.342,0.213,0.181,0.364,-0.338,-0.321,0.547,0.083,-0.292,0.142,-0.163,0.201,0.095,-0.299,-0.017,0.199,0.287,-0.348,-0.562,-0.412,0.209,0.22,-0.006,-0.307,-0.237,0.49,0.054,0.073,0.06,-0.443,-0.163,0.173,-0.075,0.026,-0.12,-0.464,-0.481,0.493,-0.183,0.305,0.135,0.111,0.154,-0.146,0.23,-0.162,0.197,-0.229,-0.149,0.39,0.339,0.586,-0.176,0.129,0.351,0.12,-0.526,-0.069,-0.041,-0.048,-0.35,0.276,-0.298,-0.054,-0.203,-0.023,0.113,0.248,0.262,-0.434,0.179,0.204,-0.427,0.187,-0.072,-0.075,0.086,-0.157,-0.235,0.113,-0.002,-0.078,-0.353,0.122,-0.301,0.522,-0.009,0.095,0.401,-0.36,0.644,0.575,0.405,0.126,-0.328,-0.312,0.24,0.004,-0.159,-0.252,0.043,0.028,-0.025,0.142,0.28,-0.345,-0.265,0.183,0.394,0.006,0.201,0.198,-0.118,0.098,-0.114,0.087,-0.309,0.041,-0.237,0.175,-0.103,0.01,-0.003,0.061,0.047,-0.328,-0.399,0.454,-0.358,-0.243,0.065,-0.155,-0.204,0.448,-0.172,-0.139,-0.145,0.162,-0.631,-0.347,-0.254,0.524,0.145,-0.197,-0.255,-0.356,0.268,-0.326,0.36,0.088,-0.078,-0.116,-0.481,0.309,-0.056,-0.382,0.13,-0.191,-0.238,0.068,-0.085,0.117,0.045,0.05,-0.031,-0.09,-0.173,-0.122,-0.01,0.123,0.322,-0.257,-0.036,-5.012,-0.314,-0.266,0.186,0.024,-0.279,0.156,0.191,-0.63,-0.1,-0.017,0.077,-0.081,0.267,0.003,-0.236,-0.012,0.126,-0.312,0.045,0.137,-0.321,0.056,-0.27,-0.48,-0.133,0.089,0.486,-0.304,-0.006,0.155,0.102,-0.019,0.267,-0.126,-0.425,-0.055,0.147,0.449,-0.192,-0.081,-0.005,-0.052,0.262,0.176,-0.123,-0.075,0.005,-0.171,0.271,0.269,0.06,0.509,-0.053,0.09,0.019,0.023,-0.111,-0.211,-0.242,-0.37,-0.167,-0.171,0.519,-0.337,0.017,-0.487,-0.695,-0.004,0.019,0.197,-0.074,0.017,-0.915,-0.504,-0.275,-0.218,-0.151,0.239,-0.014,0.246,-0.034,0.485,0.275,0.068,0.075,0.196,-0.243,-0.288,0.549,-0.028,0.297,0.556,-0.211,-0.114,0.408,-0.143,-0.23,0.013,0.136,0.072,-0.213,0.332,-0.364,0.369,-0.001,-0.366,0.162,0.02,-0.107,0.133,-0.357,0.221,-0.003,-0.249,0.157,-0.275,0.235,0.157,0.151,0.01,0.246,0.095,-0.144,0.271,-0.055,-0.05,-0.357,-0.376,0.337,0.243,0.215,0.211,-0.683,-0.008,-0.059,-0.233,-0.047,-0.201,0.027,0.296,-0.235,-0.165,0.267,0.482,-0.163,-0.114,-0.301,0.073,0.552,0.024,-0.215,0.053,0.17,0.025,-0.131,0.284,-0.381,0.187,-0.189,-0.159,0.03,-0.026,0.138,-0.088,0.829,0.37,-0.263,-0.281,0.1,0.273,-0.147,-0.246,-0.182,-0.282,0.01,0.061,-0.102,-0.092,0.505,-0.057,-0.064,-0.109,0.253,-0.058,0.073,-0.737,-0.042,0.267,0.273,0.34,-0.388,0.177,-0.296,-0.114,0.097,0.162,0.429,0.037,0.156,0.263,0.163,0.185,-0.061,0.295,-0.162,0.352,-0.113,-0.414,0.003,0.376,-0.047,-0.557,-0.175,-0.299,0.009,0.007,0.307,-0.231,-0.302,0.056,-0.145,0.1,-0.114,-0.015,0.243,-0.408,-0.562,-0.302,0.261,-0.318,0.528,0.175,0.132,0.558,0.094,-0.304,0.306,0.188,0.285,-0.358,-0.018,-0.333,-0.068,0.135,-0.166,0.367,-0.097,0.018,0.401,0.02,-0.294,0.161,-0.559,0.354,-0.179,0.113,0.019,0.362,0.47,-0.25,0.111,-0.1,0.586,-0.341,0.046,0.098,-0.159,-0.316,0.015,0.392,-0.078,0.121,0.146,0.4,-0.158,0.386,-0.235,-0.255,-0.126,0.144,0.356,-0.008,-0.091,0.555,0.1,-0.261,0.127,0.026,0.157,-0.076,-0.128,-0.094,0.201,-0.065,0.18,-0.217,-0.022,-0.268,0.01,-0.154,-0.054,0.03,-0.124,-0.207,-0.008,-0.083,0.179,-0.128,0.067,0.132,-0.097,0.039,0.35,0.138,-0.083,-0.112,-0.002,-0.284,0.036,0.108,-0.234,0.047,0.091,0.13,0.001,-0.636,-0.223,0.084,0.184,0.102,-0.107,-0.1,0.188,0.316,0.171,-0.135,-0.413,0.11,-0.176,0.276,0.247,0.429,0.12,0.081,0.151,-0.127,0.111,-0.104,0.228,0.052,-0.388,-0.01,-0.376,-0.084,0.227,0.121,0.397,0.189,-0.694,-0.046,0.053,-0.205,-0.096,-0.054,-0.034,-0.206,-0.101,-0.088,0.014,-0.167,-0.338,-0.357,0.263,0.254,0.136,0.006,-0.012,0.066,-0.463,0.365,-0.028,-0.264,-0.243,0.035,-0.29,-0.024,-0.033,0.145,-0.204,0.084,0.098,-0.917,0.035,-0.043,-0.218,-0.223,-0.422,0.342,-0.027,0.349,0.01,0.474,0.142,-0.23,-0.121,0.096,0.068,-0.409,-0.27,0.335,-0.006,-0.293,0.22,0.136,0.051,0.108,-0.131,-0.176,-0.338,-0.044,0.102,-0.072,0.516,-0.204,-0.555,-0.359,0.269,0.108,0.279,-0.088,-0.005,-0.238,-0.135,-0.213,-0.008,0.034,0.12,0.161,-0.569,-0.281,-0.028,0.369,-0.418,-1.093,-0.101,-0.146,0.014,0.203,0.366,0.581,0.033,0.144,0.075,0.355,-0.079,0.22,-0.134,-0.025,0.362
chill,0.433,-0.081,-0.133,-0.121,0.191,-0.083,0.155,0.563,0.185,-0.459,0.106,0.012,0.102,0.131,-0.01,-0.088,-0.265,-0.011,0.214,-0.008,0.293,-0.18,-0.077,-0.0,-0.077,0.014,-0.131,-0.013,-0.181,0.213,-0.355,-0.21,-0.577,-0.036,-0.16,0.227,-0.227,0.247,-0.272,-0.178,0.113,-0.512,0.205,-0.208,-0.209,-0.092,0.686,0.139,-0.463,-0.517,-0.405,0.343,0.165,-0.149,-0.084,-0.04,0.196,0.071,0.104,-0.144,0.493,-0.406,0.067,0.066,0.01,0.254,0.323,-0.111,-0.337,0.288,0.088,0.716,-0.33,0.195,0.251,-0.026,0.349,-0.023,0.126,0.112,0.266,0.261,0.399,0.445,-0.171,0.082,-0.235,-0.087,0.253,0.354,-0.15,-0.227,-0.349,-0.074,0.193,-0.021,-0.357,0.147,-0.241,-0.036,-0.232,-0.375,0.048,0.146,-0.161,0.057,-0.217,-0.426,0.139,-0.439,0.169,0.052,0.189,-0.227,-0.228,0.249,-0.073,-0.259,0.321,-0.031,-0.019,0.323,-0.07,0.18,-0.032,0.415,-0.353,-0.196,-0.225,-0.414,0.111,0.404,0.112,-0.148,0.134,-0.33,0.334,0.075,-0.017,-0.115,0.038,0.39,0.203,0.124,-0.048,-0.291,-0.273,-0.281,-0.094,0.212,0.045,0.186,-0.085,-0.682,0.243,-0.102,0.048,0.329,0.285,-0.163,0.14,0.003,0.072,-0.046,0.149,-0.226,0.411,0.253,0.046,-0.345,-0.299,-0.256,0.64,0.404,-0.008,0.132,0.076,0.25,-0.453,0.195,0.352,0.236,0.027,-0.521,0.003,0.12,0.054,-0.123,0.206,0.298,-0.02,-0.004,-0.063,-0.03,0.104,-0.636,0.015,-0.013,-0.031,-0.132,0.171,-0.019,0.337,-0.0,0.006,0.703,0.356,-0.298,0.098,-0.195,-0.431,0.101,0.02,-0.044,-0.222,-0.349,0.25,-0.028,0.114,0.104,0.219,-0.138,-0.115,0.285,-0.616,0.19,0.443,-0.406,0.155,-0.132,-0.218,-0.236,-0.171,-0.05,-0.464,0.158,0.157,-0.18,0.011,-0.083,-0.332,-0.004,0.232,0.603,-0.044,0.153,0.267,-0.274,0.041,-0.07,-0.021,-0.068,0.006,-0.352,-0.376,-0.383,-0.028,-0.325,0.387,0.127,0.137,-0.165,0.612,-0.066,-0.203,0.125,0.056,-0.07,-0.031,-0.013,-0.038,-0.129,0.483,0.087,-0.093,-0.541,0.285,0.028,-0.033,0.123,-0.129,0.331,0.033,0.116,0.263,-0.637,0.092,-0.345,0.322,-0.137,0.095,0.175,-0.002,0.059,0.102,-0.105,0.065,0.349,-0.101,0.23,-0.319,-0.097,-0.106,-0.246,0.086,0.324,-0.354,-0.331,-4.972,-0.172,-0.005,-0.438,-0.009,-0.103,0.2,0.02,-0.736,0.403,0.658,-0.154,0.002,0.163,0.121,-0.332,-0.223,-0.399,-0.499,0.325,0.057,0.093,0.528,-0.133,0.013,0.117,0.082,0.158,-0.464,-0.127,0.298,-0.151,0.298,0.061,0.06,-0.278,0.211,-0.201,0.551,0.188,-0.038,-0.172,0.086,0.185,0.339,-0.2,0.28,-0.093,0.014,0.165,0.068,-0.021,-0.071,-0.41,-0.031,0.394,-0.032,0.144,-0.252,-0.347,0.305,-0.358,-0.166,0.472,-0.452,0.27,-0.051,-0.414,0.301,0.269,0.096,-0.673,0.521,-0.85,-0.023,-0.07,-0.444,-0.017,0.339,-0.116,0.183,0.184,0.122,0.508,0.191,0.356,0.23,-0.191,-0.115,0.179,0.057,-0.031,0.34,-0.22,-0.05,-0.101,0.199,-0.166,0.053,0.406,-0.012,0.085,-0.029,-0.518,0.373,-0.331,-0.554,0.36,0.096,0.303,0.165,-0.188,0.321,0.195,-0.454,0.015,-0.509,0.333,0.238,-0.012,-0.304,0.234,-0.415,-0.046,-0.077,0.006,-0.093,-0.33,-0.536,0.184,-0.023,0.006,0.409,-0.064,-0.268,0.158,-0.389,-0.434,-0.088,0.185,0.289,0.032,0.167,0.548,-0.126,-0.081,0.151,0.269,-0.3,0.406,0.399,-0.387,0.282,0.154,-0.155,-0.108,0.6,-0.104,0.005,-0.079,0.199,-0.077,0.053,0.378,-0.018,0.488,-0.027,-0.121,-0.45,-0.476,0.188,-0.285,-0.241,0.373,-0.102,0.109,-0.112,-0.621,-0.041,0.773,0.028,-0.179,0.035,-0.224,0.286,0.302,-0.474,-0.059,0.169,0.266,0.63,-0.498,-0.079,-0.411,-0.022,0.068,0.353,0.899,-0.071,0.162,-0.032,-0.143,0.19,0.277,0.341,0.308,-0.194,0.156,-0.424,-0.309,0.289,-0.329,-0.402,-0.038,-0.448,0.063,0.066,-0.049,-0.194,-0.084,-0.026,-0.258,0.153,-0.253,-0.275,0.278,-0.376,-0.177,-0.006,-0.165,0.006,0.096,0.182,0.051,0.591,-0.069,-0.432,-0.028,-0.165,0.13,-0.069,-0.605,-0.394,-0.11,0.013,0.102,-0.042,-0.109,0.32,0.462,0.116,-0.093,0.211,-0.11,0.481,-0.413,0.339,0.699,0.056,0.006,-0.224,0.173,-0.285,0.471,-0.339,0.264,0.208,0.202,-0.134,0.095,-0.295,-0.114,0.304,0.193,-0.266,0.233,-0.257,0.114,-0.35,-0.016,0.206,0.601,0.225,-0.489,0.47,-0.305,-0.174,-0.275,-0.051,-0.169,0.13,0.128,0.295,0.488,-0.275,0.267,-0.154,0.036,-0.489,0.048,-0.41,0.077,-0.013,0.083,-0.597,-0.085,0.225,-0.119,-0.037,0.021,-0.11,-0.149,-0.186,0.477,0.121,-0.093,0.214,-0.578,-0.049,0.188,-0.046,0.143,0.262,0.047,0.421,0.015,-0.249,-0.019,0.022,0.276,-0.106,0.04,-0.107,0.302,0.128,0.144,0.485,-0.017,-0.263,-0.13,0.379,0.227,-0.604,-0.58,0.077,-0.054,0.01,0.15,0.234,0.416,-0.127,-0.046,-0.432,-0.222,0.278,-0.322,-0.341,0.266,-0.102,-0.151,-0.122,0.198,0.337,-0.295,-0.01,-0.199,-0.568,0.304,-0.351,-0.112,-0.163,-0.317,-0.193,0.462,0.007,-0.163,0.076,0.264,-0.203,-0.003,-0.186,0.046,-0.03,-0.349,0.99,-0.314,0.009,-0.321,-0.293,0.194,0.39,-0.191,-0.218,-0.237,0.211,-1.009,-0.213,-0.406,-0.068,0.094,0.642,0.117,0.359,0.239,0.035,0.019,-0.057,-0.071,-0.382,-0.052,-0.043,0.068,-0.452,0.757,-0.366,0.014,-0.11,-0.067,-0.012,-0.607,-0.262,0.176,0.044,0.234,0.151,-0.281,-0.229,0.139,0.07,0.146,-0.082,-0.155,-0.125,-0.286,0.049,-0.049,0.172,-0.172,-0.071,-0.166,0.296,0.447,0.066,-0.234,-0.061,0.067,-0.337,-0.181,-0.045,-0.013,0.553,0.021,0.266,-0.179,0.114,0.195,0.07,0.012,0.023,0.16
time,0.377,-0.022,0.017,-0.184,1.095,0.385,0.168,0.177,0.106,-0.848,-0.137,-0.042,-0.185,0.281,0.029,-0.086,0.018,0.121,0.061,0.134,0.222,0.303,-0.349,-0.351,-0.226,0.364,-0.397,0.21,-0.283,0.162,0.06,-0.351,-0.147,0.563,-0.128,-0.413,-0.087,0.327,-0.628,0.015,0.271,-0.26,0.139,-0.318,0.049,-0.101,0.226,-0.173,-0.365,-0.001,-0.72,-0.146,0.09,0.257,-0.161,0.102,0.053,0.235,-0.061,-0.348,0.563,-0.352,0.243,0.022,-0.236,0.422,0.693,-0.207,-0.111,0.537,-0.312,0.271,0.058,0.217,0.299,-0.185,0.219,0.139,0.229,0.028,0.298,0.422,0.377,-0.215,-0.327,-0.283,-0.33,-0.184,0.475,0.439,0.053,-0.306,-0.238,-0.031,-0.137,-0.869,-0.51,0.112,0.431,-0.215,-0.445,-0.888,-0.041,-0.145,-0.279,-0.165,-0.103,0.397,-0.014,-0.571,-0.332,0.278,0.131,0.12,-0.056,0.5,-0.234,0.301,-0.029,-0.096,-0.272,0.383,0.291,0.379,0.021,0.297,-0.159,-0.15,-0.44,-0.58,0.037,0.225,0.068,-0.075,0.084,0.274,0.475,0.227,0.185,-0.242,0.361,0.898,-0.189,-0.009,-0.064,-0.169,-0.018,-0.676,-0.434,0.354,-0.11,0.57,-0.181,-0.365,-0.097,-0.136,-0.29,0.449,-0.237,-0.03,0.533,0.107,0.196,0.401,-0.412,0.152,0.355,0.703,0.273,-0.354,-0.733,-0.541,0.592,0.604,-0.265,0.731,0.06,-0.021,-0.352,-0.19,-0.232,0.499,0.049,-0.45,0.18,-0.18,0.365,-0.527,0.312,-0.02,-0.401,-0.488,-0.33,-0.188,0.229,-0.544,0.313,-0.654,0.025,-0.156,0.047,-0.4,0.576,0.146,-0.03,0.863,-0.088,-0.306,0.046,-0.135,-0.499,0.856,-0.31,-0.317,0.176,-0.32,0.231,-0.572,0.019,0.208,0.295,0.078,0.424,0.438,-0.807,0.449,0.555,-0.186,0.175,-0.739,-0.437,-0.325,-0.039,0.032,0.0,0.344,0.077,-0.12,0.033,0.097,0.01,-0.478,0.552,0.653,-0.448,0.12,0.438,-0.416,-0.344,-0.207,-0.2,-1.083,0.005,-0.275,-0.511,-0.416,-0.234,-0.3,0.292,0.122,0.159,-0.054,0.962,-0.312,-0.092,-0.143,-0.29,0.166,0.233,-0.083,-0.36,-0.456,0.106,-0.435,-0.263,-0.272,0.623,0.048,-0.053,0.351,-0.161,0.42,-0.355,-0.084,0.477,-0.684,0.155,-0.096,-0.117,-0.107,-0.492,0.38,-0.405,-0.209,0.506,0.25,0.102,0.173,-0.122,-0.016,-0.359,-0.087,-0.178,0.168,0.104,-0.073,-0.177,0.09,-4.502,-0.15,-0.41,-0.194,-0.068,-0.294,0.681,-0.014,-0.498,0.179,0.601,-0.146,-0.023,0.429,0.423,-0.192,-0.194,-0.332,-0.725,0.57,-0.099,-0.486,0.422,-0.46,0.116,0.084,-0.027,0.111,-1.006,0.065,-0.103,-0.096,0.424,-0.387,0.202,0.211,-0.093,-0.111,0.55,0.073,0.138,-0.221,0.286,0.266,-0.088,0.309,0.658,-0.027,-0.048,0.531,-0.017,-0.125,0.356,-0.467,-0.138,0.142,0.02,0.096,0.306,-0.016,-0.07,-0.341,0.08,0.199,-0.38,-0.033,-0.214,0.153,0.35,-0.067,0.113,-0.467,0.166,-1.229,-0.812,0.512,-0.116,-0.159,0.377,0.264,-0.279,-0.048,0.258,0.346,0.406,0.239,0.155,-0.802,-0.185,0.565,-0.272,0.202,0.23,-0.05,0.282,0.335,0.077,-0.227,0.017,-0.162,-0.337,0.04,0.273,-0.079,0.464,-0.306,-0.627,0.041,-0.146,-0.178,0.116,0.163,0.286,0.263,-0.216,-0.235,-0.312,0.388,0.264,0.165,-0.328,0.262,-0.387,-0.22,-0.24,-0.074,0.127,-0.707,-0.284,0.141,-0.158,0.364,0.044,-0.433,0.092,-0.202,-0.509,0.032,0.157,0.392,0.823,-0.09,0.215,0.15,0.228,0.239,0.069,0.01,-0.23,0.564,0.49,0.006,0.1,0.255,-0.392,-0.257,0.443,-0.239,0.002,0.111,-0.04,0.261,-0.542,0.104,0.449,0.601,-0.017,0.344,-0.383,-0.369,0.389,-0.127,-0.176,0.258,-0.095,-0.234,-0.019,-0.453,-0.126,0.286,0.203,0.253,0.258,-0.226,0.159,-0.124,-0.667,-0.229,0.129,0.472,0.91,-0.247,-0.095,-0.655,-0.163,-0.162,0.135,1.071,0.358,0.139,0.053,-0.099,0.02,-0.013,0.766,-0.032,0.352,0.346,-0.088,-0.099,-0.308,-0.27,-0.441,-0.561,-0.175,0.116,0.005,-0.089,-0.134,-0.378,0.419,-0.532,-0.172,-0.061,0.071,0.308,-0.223,-0.715,0.397,-0.116,-0.047,-0.313,0.188,0.221,-0.025,-0.522,-0.827,0.217,-0.055,0.531,0.004,-0.465,-0.524,0.156,0.188,0.39,-0.242,-0.232,0.47,0.48,-0.506,0.158,0.048,-0.413,0.316,-0.977,0.014,0.259,0.197,-0.195,-0.082,-0.112,-0.212,0.421,-0.442,0.583,0.247,-0.032,0.352,0.436,-0.212,-0.204,-0.122,0.174,-0.016,-0.073,0.332,-0.107,-0.007,0.029,0.796,1.361,0.391,-0.009,-0.092,-0.069,-0.422,-0.095,-0.057,-0.022,0.504,-0.152,0.297,0.085,0.194,0.216,-0.313,-0.107,-1.094,-0.017,0.069,0.042,0.545,-0.257,-0.423,-0.034,0.182,-0.236,0.044,0.087,0.144,-0.173,-0.134,0.252,0.18,-0.316,0.037,-0.4,-0.182,0.414,-0.147,-0.053,0.325,0.174,0.404,0.233,-0.424,0.395,0.249,0.824,0.211,0.263,-0.437,0.399,0.613,-0.068,0.194,-0.048,0.055,0.066,0.294,0.094,0.153,0.388,0.048,-0.024,-0.201,0.103,-0.248,0.736,-0.052,-0.057,-0.017,-0.308,-0.221,0.259,-0.158,0.32,-0.442,-0.664,0.054,0.06,0.099,-0.577,0.031,0.099,-0.241,0.046,-0.194,-0.395,0.42,-0.277,0.26,0.556,0.07,-0.021,0.501,-0.234,-0.205,-0.132,0.179,-0.796,-0.088,-0.393,0.518,-0.278,0.222,0.311,0.17,-0.17,0.565,-0.651,-0.885,-0.413,0.192,-0.381,0.181,-0.166,0.392,0.436,1.076,0.002,0.229,-0.147,-0.23,0.184,-0.234,-0.038,-0.741,-0.321,0.276,-0.135,-0.43,0.649,-0.083,-0.058,0.21,-0.208,0.257,-0.917,-0.162,-0.16,0.04,0.307,-0.753,-0.894,-0.143,0.064,0.113,0.449,-0.108,0.216,0.255,-0.615,-0.117,0.14,0.28,-0.236,0.282,-0.323,0.186,0.352,0.055,-0.004,-1.278,-0.357,-0.187,0.028,0.012,0.169,0.553,-0.521,0.435,-0.143,0.233,-0.031,0.256,-0.012,0.692,-0.017
drink,0.444,0.312,0.089,-0.275,0.289,0.014,0.358,0.175,0.301,-0.346,-0.251,0.216,0.146,0.283,0.168,-0.23,0.216,0.169,0.434,0.007,0.189,-0.026,0.331,-0.161,0.141,-0.21,-0.171,0.454,-0.183,-0.258,0.314,0.096,-0.006,-0.053,-0.388,-0.469,-0.104,0.203,0.014,0.196,-0.091,-0.555,0.285,0.009,0.227,-0.2,0.522,0.169,-0.555,-0.466,-0.205,0.043,0.216,0.015,-0.016,0.13,0.074,0.164,0.416,-0.165,0.12,0.131,0.278,-0.458,-0.187,0.066,0.254,-0.018,-0.335,0.332,0.086,0.005,-0.646,-0.24,-0.239,-0.009,0.421,0.068,-0.067,-0.007,0.522,0.35,0.202,0.438,-0.59,0.336,-0.154,-0.481,0.014,0.301,-0.253,-0.168,-0.115,0.035,0.032,-0.786,-0.422,0.1,0.612,-0.378,0.299,0.067,-0.141,-0.142,-0.439,0.174,-0.129,-0.231,-0.11,-0.341,0.078,0.13,0.129,-0.095,0.08,0.295,0.217,0.472,0.097,0.21,-0.612,0.37,-0.132,0.237,-0.198,0.227,0.229,0.15,-0.081,-0.482,0.505,0.017,0.014,0.016,-0.153,-0.064,0.657,0.036,0.348,-0.28,-0.068,0.727,-0.442,0.024,-0.143,-0.01,-0.262,-0.38,-0.588,0.081,-0.006,0.459,-0.014,0.04,0.319,0.211,-0.502,0.118,-0.373,-0.318,0.204,0.104,-0.027,0.234,-0.033,0.153,0.127,0.37,-0.081,-0.146,-0.082,-0.585,0.528,0.264,0.293,0.268,-0.029,0.358,-0.32,0.255,-0.262,0.329,0.014,-0.339,-0.316,0.249,0.331,-0.678,0.174,0.408,-0.128,-0.456,-0.426,0.055,0.462,-0.875,-0.539,-0.398,-0.232,-0.181,0.102,0.019,0.403,0.254,-0.376,0.768,0.011,-0.1,-0.031,-0.117,-0.34,0.167,-0.114,-0.317,-0.105,-0.072,0.123,-0.131,0.035,0.35,0.441,0.226,-0.04,0.429,-0.622,0.481,0.413,0.18,0.15,-0.681,0.097,-0.709,0.219,-0.09,0.135,0.576,0.172,0.092,-0.294,-0.105,-0.165,-0.822,0.291,0.454,-0.16,0.078,0.338,-0.386,-0.306,-0.182,0.057,-0.124,0.077,-0.07,0.429,-0.282,-0.307,0.055,0.194,0.446,-0.861,-0.102,1.242,-0.06,-0.434,-0.009,-0.192,-0.293,-0.284,0.031,-0.282,-0.344,0.06,-0.578,-0.768,-0.036,0.647,-0.153,0.063,-0.128,-0.094,0.126,-0.031,0.293,0.155,-0.717,-0.041,0.258,0.134,-0.152,-0.282,0.521,-0.197,-0.274,0.373,-0.105,0.187,0.458,-0.026,0.08,0.121,-0.016,-0.408,-0.109,0.498,0.199,-0.457,0.274,-4.636,-0.305,-0.218,0.154,0.184,-0.366,0.102,-0.18,-0.393,0.068,-0.038,0.144,0.36,0.522,0.313,-0.039,0.239,-0.516,-0.384,0.648,-0.544,-0.088,0.223,-0.253,-0.028,0.093,0.114,0.153,-0.828,0.099,0.016,0.303,0.04,0.134,0.008,0.254,-0.197,-0.16,0.928,0.124,-0.039,0.228,-0.08,0.447,0.528,0.108,0.096,-0.093,-0.219,0.321,-0.049,-0.147,0.183,0.147,0.335,0.26,0.171,0.163,0.032,-0.39,0.092,-0.096,-0.293,0.379,-0.755,0.223,-0.383,-0.596,0.365,0.257,-0.074,0.434,0.052,-1.144,-0.533,-0.077,-0.09,0.066,0.385,0.344,0.256,0.17,0.4,0.044,0.19,0.045,0.274,-0.512,-0.588,0.664,0.022,0.313,0.429,0.159,-0.102,0.359,0.28,-0.269,0.186,-0.087,-0.05,-0.435,0.173,-0.691,0.48,-0.43,-0.68,-0.023,0.023,0.095,0.237,0.065,0.135,0.255,0.075,0.077,-0.388,0.266,-0.107,-0.002,-0.13,0.38,-0.512,-0.541,0.105,-0.073,0.367,-0.341,-0.286,0.263,0.342,-0.078,0.209,-0.451,0.161,-0.248,-0.491,-0.429,0.064,0.159,0.305,-0.318,-0.646,0.385,0.203,-0.013,0.117,-0.008,0.016,0.553,-0.148,-0.238,0.061,0.295,-0.09,-0.743,0.399,-0.206,0.24,-0.363,-0.237,0.069,-0.81,-0.03,0.324,0.771,-0.019,0.234,-0.037,-0.11,0.593,-0.124,-0.138,0.02,0.041,-0.213,-0.517,-0.059,-0.123,0.438,0.079,-0.028,-0.049,-0.539,0.129,0.232,-0.249,-0.033,0.32,0.578,0.044,-0.329,0.279,-0.395,-0.09,-0.341,0.036,0.908,0.225,-0.011,0.339,-0.278,0.143,-0.139,1.205,-0.237,0.57,0.193,-0.725,0.035,0.162,-0.502,-0.889,-0.42,-0.468,0.197,-0.178,0.063,0.022,-0.101,0.239,-0.146,-0.389,-0.216,-0.021,0.361,-0.132,-0.377,0.54,0.343,-0.106,-0.334,0.47,0.432,1.033,0.004,-0.979,0.488,0.116,0.188,-0.179,-0.242,-0.153,-0.172,-0.095,-0.268,0.011,0.454,-0.063,0.115,-0.115,0.031,0.564,-0.354,0.402,-0.348,0.268,0.283,0.091,0.425,-0.055,-0.0,-0.01,0.485,-0.354,0.598,0.133,-0.357,0.016,0.138,-0.049,-0.138,-0.072,0.369,-0.096,0.038,-0.05,-0.276,-0.187,0.369,0.558,0.563,0.174,-0.087,0.356,-0.127,-0.671,-0.079,-0.187,0.158,0.461,0.046,-0.174,0.918,0.051,0.135,-0.337,-0.114,-0.533,0.404,-0.188,0.144,-0.033,-0.108,-0.069,-0.036,0.185,-0.325,0.018,0.004,0.293,-0.744,-0.044,0.2,0.253,-0.412,0.323,-0.041,-0.417,0.523,-0.128,-0.109,0.219,0.117,0.522,0.022,-0.051,-0.026,0.123,0.031,-0.004,0.08,0.108,0.466,-0.01,0.106,-0.374,-0.437,-0.56,0.059,0.112,0.137,0.406,-0.088,0.47,-0.083,-0.236,0.185,0.16,0.139,0.389,0.176,-0.29,-0.37,-0.131,-0.174,0.234,0.113,-0.818,-0.911,0.157,-0.044,0.294,-0.61,-0.135,-0.053,-0.588,-0.118,-0.323,-0.19,0.003,-0.097,-0.49,0.33,0.19,-0.14,0.158,-0.125,0.22,-0.32,0.466,0.139,-0.459,-0.345,0.191,-0.698,-0.125,-0.248,0.147,-0.057,0.33,0.017,-0.356,-0.696,0.185,-0.305,-0.135,0.084,-0.266,0.105,0.067,-0.171,0.204,-0.184,-0.016,0.183,-0.371,-0.186,-0.38,0.051,0.102,-0.092,-0.376,0.189,0.367,0.019,0.34,0.13,0.048,-0.929,-0.201,0.343,0.418,0.391,0.04,-0.611,-0.438,0.279,-0.274,-0.192,-0.312,-0.181,0.506,-0.392,-0.184,0.573,0.335,0.183,0.04,-0.252,0.066,0.025,0.767,-0.216,-1.422,-0.218,-0.098,0.107,0.197,-0.285,0.427,-0.404,0.241,-0.104,0.264,0.166,-0.0,-0.09,0.293,-0.495
eat,0.328,-0.038,-0.2,-0.332,0.474,0.273,0.339,0.383,0.034,-0.629,-0.058,0.296,-0.197,-0.214,-0.224,-0.253,0.194,0.084,-0.03,0.459,0.276,-0.298,-0.296,0.018,0.002,-0.012,-0.419,-0.036,0.079,-0.352,0.104,-0.136,0.179,0.494,-0.763,-0.174,-0.421,0.266,-0.695,0.448,0.041,-0.32,0.175,0.021,0.145,-0.312,-0.087,0.058,-0.551,-0.258,-0.174,0.055,0.065,-0.135,-0.337,0.06,0.021,0.257,0.106,-0.373,-0.386,0.117,0.462,-0.323,-0.543,0.143,0.502,-0.047,-0.223,0.181,0.179,-0.38,-0.591,-0.003,-0.106,-0.267,0.277,0.433,0.041,-0.078,0.138,0.07,-0.155,0.476,-0.239,-0.145,-0.255,-0.052,0.056,0.296,-0.262,-0.169,-0.129,-0.125,0.116,-0.537,-0.252,0.195,0.351,-0.016,0.041,0.128,0.181,-0.056,-0.493,-0.011,-0.195,0.007,0.183,-0.458,0.243,-0.126,-0.056,-0.058,-0.33,0.52,-0.135,0.213,-0.37,-0.399,-0.446,0.342,0.093,0.512,-0.007,0.375,-0.314,0.185,-0.011,-0.032,0.353,0.204,0.037,-0.331,0.001,-0.24,0.461,0.113,0.135,-0.327,-0.411,0.711,0.333,0.009,0.218,-0.344,-0.472,-0.139,-0.253,0.068,0.09,0.214,-0.229,-0.803,0.062,0.02,-0.54,0.21,0.052,-0.057,0.386,0.11,-0.095,-0.336,-0.371,-0.38,0.36,0.472,0.137,0.028,-0.396,-0.565,0.867,0.825,0.052,0.214,0.216,-0.282,-0.223,0.392,-0.162,0.157,0.132,-0.918,0.081,-0.172,0.399,-0.839,0.493,0.596,-0.78,-0.553,-0.147,0.072,0.476,-0.722,-0.439,-0.31,0.274,-0.244,0.171,-0.129,0.234,0.427,-0.4,0.598,-0.488,-0.559,-0.063,-0.232,-0.244,0.736,0.088,-0.202,0.055,-0.388,0.142,0.338,0.067,-0.11,0.424,0.054,0.194,-0.006,-0.687,0.6,0.651,-0.089,0.374,-0.041,-0.383,-0.588,0.368,0.082,0.189,0.344,0.257,0.022,-0.181,0.055,-0.222,-0.393,0.372,0.086,-0.056,0.12,0.695,-0.434,0.004,-0.064,-0.203,-0.433,0.314,-0.391,-0.385,-0.852,-0.006,0.196,0.378,0.615,-0.452,-0.394,1.061,0.073,-0.124,-0.156,-0.114,0.102,0.27,-0.309,0.157,-0.308,0.234,-0.034,-0.7,-0.573,0.8,0.273,0.312,-0.196,-0.308,0.348,-0.132,0.123,0.632,-0.623,0.09,-0.54,-0.252,-0.024,0.091,0.579,-0.087,-0.374,0.412,0.033,0.225,0.163,0.212,-0.427,0.17,-0.064,0.148,0.074,0.275,0.277,-0.077,-0.014,-4.575,-0.232,-0.088,0.064,0.301,-0.496,0.183,-0.166,-0.298,0.193,0.239,-0.123,0.58,0.395,0.445,0.264,0.136,-0.076,-0.303,0.691,-0.186,-0.497,0.427,-0.016,-0.147,0.827,0.207,0.435,-0.41,-0.156,0.027,-0.245,0.292,-0.395,-0.074,0.343,-0.056,-0.185,0.655,0.057,0.133,0.316,0.139,0.377,0.421,-0.054,0.152,-0.329,0.06,0.404,0.354,0.084,0.017,-0.031,0.219,0.118,0.161,1.071,0.204,-0.395,0.342,0.033,-0.519,0.47,-0.505,0.501,-0.07,-0.119,-0.182,0.075,-0.158,0.013,0.185,-1.148,-0.7,0.389,-0.587,-0.028,0.054,0.375,-0.133,-0.205,0.266,0.116,0.068,-0.135,0.045,-0.084,-0.648,0.623,0.089,0.398,0.453,0.086,0.318,-0.097,0.311,-0.325,0.124,0.046,-0.272,-0.213,0.517,-0.051,0.962,-0.561,-0.499,0.301,-0.038,-0.138,-0.017,0.124,0.173,-0.002,-0.396,-0.007,-0.215,-0.128,-0.239,-0.162,-0.682,0.367,-0.597,-0.22,-0.133,-0.363,0.4,-0.222,-0.123,0.136,-0.092,-0.009,0.315,-0.304,-0.071,-0.238,-0.286,-0.121,-0.169,0.165,0.112,-0.119,-0.245,0.492,-0.021,0.3,-0.339,-0.039,0.024,0.552,0.163,-0.261,0.26,0.37,0.039,-0.534,0.63,-0.311,0.191,-0.374,-0.078,-0.16,-0.26,0.318,0.07,0.676,-0.127,-0.251,-0.225,-0.161,0.8,-0.324,0.146,0.34,0.0,-0.556,-0.057,-0.821,-0.302,0.492,0.296,-0.079,0.183,-0.613,0.189,-0.385,-0.69,0.116,0.189,0.412,-0.021,-0.315,0.052,-0.456,-0.201,-0.217,0.301,0.016,-0.002,0.185,0.158,-0.358,-0.179,-0.007,0.731,-0.254,0.406,0.682,-0.105,0.018,-0.39,-0.612,-0.466,-0.569,-0.685,0.413,0.104,0.354,0.066,-0.31,-0.041,-0.171,0.019,0.062,-0.128,0.669,-0.239,-0.606,0.459,0.025,0.023,-0.384,0.207,0.453,0.842,0.14,-0.51,0.39,0.418,0.306,-0.203,-0.486,-0.647,0.225,0.12,0.301,-0.235,0.162,0.149,0.276,-0.19,-0.127,0.193,-0.043,0.176,-0.576,-0.357,0.626,0.004,-0.234,-0.119,0.71,0.55,0.173,-0.088,0.386,0.287,-0.113,-0.145,0.145,-0.107,-0.33,0.188,0.045,0.365,0.006,-0.31,-0.724,0.117,0.038,0.578,0.785,0.278,-0.227,0.322,-0.334,-0.393,-0.37,0.034,0.315,0.187,0.231,0.366,-0.154,0.002,0.535,0.045,-0.208,-0.647,0.03,-0.239,0.281,0.19,0.267,-0.427,0.109,0.047,-0.238,-0.2,0.222,0.061,-0.687,0.119,0.749,-0.126,-0.111,-0.118,-1.109,-0.354,0.381,-0.18,-0.54,-0.187,0.459,0.485,-0.149,-0.421,-0.273,0.28,0.507,-0.001,0.198,-0.011,0.549,0.245,0.06,0.08,-0.418,-0.514,0.294,0.421,0.007,0.303,0.191,-0.325,-0.139,-0.032,0.338,0.259,0.875,-0.064,0.185,-0.392,-0.592,0.227,0.024,-0.059,0.227,-0.448,-0.349,0.117,0.425,0.208,-0.215,-0.063,0.068,-0.544,-0.301,-0.227,0.232,-0.355,0.046,0.249,-0.193,0.221,0.268,-0.044,-0.214,-0.068,-0.51,0.167,0.147,-0.498,-0.268,0.74,-0.385,-0.061,0.002,0.028,-0.164,0.179,-0.215,-0.163,-0.43,0.129,-0.141,-0.469,0.027,-0.012,0.378,0.827,0.044,0.009,-0.289,-0.005,0.339,-0.17,-0.476,-0.523,-0.191,0.471,0.058,-0.34,0.157,0.446,-0.109,0.021,-0.447,-0.08,-0.886,0.107,-0.268,-0.019,0.209,0.187,0.223,-0.146,0.329,0.071,0.183,0.147,0.213,0.403,-0.615,-0.343,0.259,0.355,-0.012,0.148,-0.384,0.362,0.077,-0.002,-0.347,-0.704,0.213,-0.151,-0.137,-0.32,0.063,0.572,-0.291,0.091,-0.029,-0.175,0.082,0.551,0.515,0.368,-0.493
journey,0.188,-0.241,-0.069,-0.087,0.447,0.275,0.613,0.102,-0.13,-0.648,-0.25,-0.027,0.451,0.459,0.087,-0.201,-0.187,-0.08,-0.519,0.231,0.257,0.144,-0.055,0.16,0.218,-0.061,-0.309,0.185,-0.086,-0.444,-0.121,-0.226,0.098,0.446,-0.699,-0.355,0.081,-0.372,0.068,0.059,0.411,-0.208,0.027,0.137,0.7,-0.188,0.209,0.097,0.116,-0.542,-0.123,0.414,-0.055,0.199,-0.116,0.427,0.053,0.066,0.254,-0.212,0.415,0.271,-0.012,-0.137,-0.233,0.32,0.3,-0.085,0.238,0.098,0.02,0.164,-0.115,0.386,0.21,-0.242,0.196,0.121,-0.169,-0.097,0.254,0.395,0.191,0.114,-0.14,0.253,0.134,-0.176,0.383,0.001,-0.06,-0.444,-0.3,0.25,0.111,-0.821,-0.298,-0.024,0.497,-0.243,0.147,0.396,-0.084,-0.185,-0.232,0.149,-0.197,-0.086,0.066,-0.846,-0.526,0.024,-0.139,-0.074,-0.188,0.128,0.092,-0.055,-0.007,0.093,-0.16,0.418,0.396,0.343,0.112,0.252,-0.339,0.209,0.186,0.244,0.006,0.346,0.043,-0.435,-0.01,0.082,0.421,0.215,-0.056,-0.235,-0.321,0.678,-0.422,0.109,0.09,-0.082,0.051,-0.265,-0.51,0.113,-0.214,0.207,-0.042,-0.361,-0.16,-0.059,-0.166,0.503,0.036,-0.359,0.41,-0.071,0.022,0.329,-0.284,0.253,0.201,0.251,0.185,-0.357,-0.613,-0.341,0.257,0.258,-0.345,0.209,0.179,-0.062,-0.321,0.157,-0.19,0.339,-0.005,-0.425,0.109,0.225,0.063,-0.405,-0.283,0.414,-0.315,-0.271,-0.211,-0.346,0.558,-0.545,-0.122,-0.452,-0.024,-0.053,-0.425,-0.165,0.424,0.312,-0.139,1.122,0.168,-0.34,0.354,0.007,-0.334,0.264,-0.143,-0.12,0.228,-0.001,0.166,-0.423,0.152,0.14,0.636,0.083,-0.2,0.332,-0.503,0.789,0.349,0.113,0.415,-0.386,-0.297,-0.405,0.442,-0.125,-0.106,-0.073,0.28,-0.228,-0.308,-0.004,0.088,-0.066,0.123,0.77,-0.058,0.082,0.292,-0.361,0.032,0.064,0.012,-0.22,-0.109,0.203,-0.116,-0.505,0.038,-0.32,0.021,0.33,0.302,-0.003,0.732,-0.328,-0.436,-0.258,-0.241,-0.164,0.499,0.066,-0.464,-0.169,0.287,-0.629,-0.535,0.093,0.436,-0.142,0.315,0.283,-0.293,0.42,0.087,0.347,0.489,-0.451,0.221,-0.129,-0.054,0.24,-0.102,0.365,-0.074,0.308,0.249,0.082,0.33,-0.003,0.126,-0.013,0.339,-0.27,-0.286,0.01,0.032,0.267,-0.224,-0.248,-4.698,-0.05,-0.347,0.076,0.037,-0.132,0.397,-0.268,-0.315,-0.012,0.483,0.089,-0.204,0.264,-0.104,-0.006,-0.081,-0.416,-0.288,0.353,-0.266,-0.205,-0.087,-0.464,-0.048,-0.127,-0.055,0.169,-0.463,0.378,0.116,-0.268,0.245,-0.228,0.093,-0.171,-0.254,-0.232,0.706,-0.066,-0.248,0.241,0.291,0.429,0.166,-0.014,0.354,-0.287,0.24,0.156,0.213,-0.328,0.518,-0.205,0.159,-0.14,-0.175,0.101,0.259,-0.078,0.077,-0.316,-0.246,-0.085,-0.747,0.201,-0.097,-0.512,-0.153,0.068,-0.095,-0.105,0.217,-1.171,-0.66,0.053,-0.384,0.032,0.123,-0.675,-0.534,-0.141,0.019,-0.053,-0.205,-0.11,-0.024,-0.164,-0.472,0.647,0.136,0.354,0.15,-0.094,0.149,0.033,0.053,-0.341,0.035,-0.113,0.028,-0.271,0.324,-0.102,0.448,-0.321,-0.45,0.15,0.168,0.235,0.048,0.113,0.143,0.05,-0.034,0.06,-0.197,0.14,0.315,0.144,-0.193,0.152,-0.494,0.114,0.019,0.156,0.109,-0.07,0.014,-0.035,-0.237,0.205,0.013,-0.601,-0.083,-0.303,-0.5,0.05,-0.119,0.121,0.393,-0.191,0.149,0.344,-0.034,0.005,-0.233,0.051,-0.076,0.391,0.202,-0.295,0.224,0.205,0.18,-0.438,0.422,-0.577,0.21,-0.145,-0.26,-0.041,0.429,0.047,0.508,1.113,0.075,-0.071,-0.185,-0.308,0.479,-0.166,-0.383,-0.28,-0.209,-0.147,-0.492,-0.332,-0.075,0.541,0.02,0.072,0.033,-0.122,0.018,0.035,-0.539,-0.054,0.14,0.549,0.26,0.135,-0.389,-0.592,-0.261,-0.293,0.146,0.269,0.274,0.359,0.085,-0.684,0.14,0.11,0.459,-0.298,0.542,0.508,-0.643,-0.112,-0.068,-0.461,-0.207,-0.294,0.121,0.17,-0.057,0.088,-0.051,0.143,0.166,-0.128,-0.041,-0.025,-0.254,0.276,-0.528,-0.886,-0.014,0.147,-0.106,-0.211,0.317,0.08,0.61,-0.014,-0.634,0.098,0.435,0.22,0.172,-0.376,-0.316,0.109,0.096,0.225,-0.39,-0.01,0.213,0.31,-0.04,0.008,0.394,-0.431,0.374,-0.324,-0.214,-0.046,0.148,0.238,0.03,0.16,-0.071,0.284,-0.295,0.33,0.324,-0.114,-0.159,0.234,-0.267,-0.102,0.099,0.43,-0.406,0.161,0.115,-0.099,-0.714,0.098,0.459,0.759,0.09,-0.031,-0.112,0.12,-0.274,-0.072,0.068,-0.189,0.457,-0.343,-0.087,0.602,0.178,0.07,-0.032,0.026,-0.895,0.246,-0.338,0.621,0.238,-0.265,-0.215,-0.06,0.262,-0.243,0.207,-0.357,0.196,0.044,-0.144,0.603,0.181,-0.35,-0.055,-0.712,-0.673,0.217,-0.232,0.335,-0.11,-0.013,0.445,-0.037,-0.387,-0.406,0.19,0.575,0.093,0.166,-0.207,0.363,0.07,0.115,0.388,-0.253,-0.03,0.228,0.098,0.13,-0.077,0.067,0.071,-0.235,0.051,0.428,-0.141,0.271,0.081,-0.153,-0.148,-0.392,-0.452,-0.115,-0.252,0.31,-0.783,-0.688,0.177,0.006,0.077,-0.458,0.029,0.202,0.053,-0.044,-0.312,0.079,0.101,-0.035,-0.429,0.109,0.379,0.34,-0.231,-0.156,0.112,-0.167,0.36,-0.371,0.023,-0.325,0.324,0.037,-0.061,-0.293,0.17,-0.285,0.511,-0.169,-0.07,-0.353,-0.111,-0.272,-0.06,-0.004,-0.059,0.383,0.697,0.031,0.278,-0.01,-0.248,0.319,-0.28,0.518,-0.641,-0.432,0.192,-0.077,-0.456,0.144,0.635,-0.051,0.277,-0.056,-0.124,-0.5,-0.13,0.137,-0.052,0.175,-0.124,-1.008,-0.356,0.275,0.172,0.13,0.079,-0.168,0.258,-0.049,0.278,0.12,0.533,-0.096,0.243,-0.247,0.078,-0.037,1.093,0.403,-1.944,-0.258,-0.23,-0.025,0.0,0.425,0.813,-0.136,0.742,-0.203,0.527,-0.014,0.009,-0.104,0.389,-0.169
surf,0.532,-0.13,-0.088,-0.033,0.065,0.093,0.196,0.083,-0.825,-0.461,0.08,0.238,0.125,0.005,0.281,0.063,0.064,0.069,0.366,0.091,0.132,-0.488,-0.308,0.075,0.242,0.047,-0.234,0.336,-0.004,0.094,0.261,0.008,-0.137,0.48,-0.305,0.097,-0.331,-0.136,-0.385,0.233,0.021,-0.322,0.758,-0.112,0.437,0.17,0.027,-0.217,0.333,-0.205,-0.3,0.641,-0.302,-0.001,-0.063,0.161,0.312,0.19,0.26,-0.266,-0.034,-0.067,-0.025,-0.168,-0.108,0.491,0.324,0.175,-0.163,-0.218,0.53,0.356,-0.219,-0.243,0.236,-0.18,0.137,0.151,0.014,-0.08,0.267,0.245,0.442,0.368,-0.196,-0.168,0.3,0.075,0.178,0.128,-0.094,-0.295,-0.195,0.043,0.007,-0.105,-0.621,0.304,0.61,-0.215,-0.276,0.21,0.183,0.074,-0.223,-0.096,-0.037,-0.273,-0.139,-0.416,-0.112,-0.007,-0.015,-0.426,-0.081,0.099,0.064,0.15,-0.051,-0.334,-0.188,0.12,0.015,0.47,0.101,0.326,-0.099,-0.112,0.039,-0.212,0.042,0.063,-0.021,0.067,0.245,0.422,0.663,0.038,-0.212,-0.339,-0.153,0.948,-0.421,-0.136,0.213,-0.019,0.099,-0.363,-0.531,0.003,-0.146,0.126,-0.348,-0.633,0.22,0.155,0.061,0.259,0.167,-0.225,0.409,-0.378,-0.033,0.075,-0.091,-0.308,0.148,0.052,0.194,-0.165,-0.64,-0.03,0.465,0.456,-0.152,0.1,0.115,0.164,-0.26,-0.068,-0.13,-0.188,-0.158,0.021,0.782,0.119,0.585,-0.029,0.367,0.325,0.25,-0.249,-0.085,-0.235,0.359,-0.519,-0.111,-0.359,0.058,-0.238,0.168,-0.064,0.168,0.472,-0.506,0.47,0.112,-0.348,-0.05,-0.032,-0.571,0.173,-0.208,-0.012,-0.063,-0.055,0.046,-0.19,-0.207,0.075,0.512,-0.101,-0.157,0.222,-0.123,0.513,0.277,0.001,0.107,-0.004,-0.069,0.001,0.157,-0.047,-0.338,0.073,0.054,0.001,0.14,0.291,-0.28,-0.23,0.092,0.719,-0.161,0.082,0.479,-0.085,-0.063,0.02,0.105,-0.456,0.038,-0.239,-0.25,-0.213,-0.138,-0.172,0.195,0.01,0.164,-0.007,0.925,-0.027,-0.612,0.14,-0.156,0.039,0.143,0.265,-0.556,0.146,0.455,-0.218,-0.315,0.177,0.224,0.057,0.365,-0.078,-0.129,0.588,-0.214,0.11,0.2,-0.474,-0.181,0.321,-0.143,-0.348,-0.002,0.07,-0.118,0.237,0.082,-0.129,0.257,0.353,0.145,0.26,0.121,-0.058,0.015,-0.187,0.687,0.475,-0.109,0.025,-4.847,-0.313,0.094,-0.178,0.054,-0.355,0.171,-0.075,-0.18,-0.249,0.07,0.044,0.38,0.12,0.117,-0.251,0.357,-0.259,-0.328,0.356,0.037,-0.029,0.097,-0.318,-0.027,0.508,0.186,0.409,-0.517,-0.209,-0.078,0.047,0.072,0.038,0.31,0.145,0.007,0.107,0.423,-0.086,-0.231,-0.197,-0.282,0.205,0.065,-0.018,0.895,-0.149,0.328,0.47,0.213,-0.278,-0.012,-0.213,0.104,-0.126,0.331,0.275,-0.096,-0.388,-0.084,-0.467,-0.365,0.111,0.043,-0.029,0.06,-0.737,0.043,0.143,0.123,-0.144,0.273,-1.069,-0.714,-0.348,-0.419,-0.206,-0.071,-0.113,0.146,-0.365,0.057,0.457,-0.057,-0.139,0.243,-0.18,-0.52,0.354,-0.052,0.239,0.231,-0.304,-0.086,0.311,-0.225,-0.311,0.055,-0.129,-0.177,-0.567,0.307,-0.364,0.144,-0.079,-0.094,0.177,0.042,0.25,0.189,0.091,0.106,0.313,-0.045,0.303,-0.751,0.321,0.333,-0.101,-0.175,0.405,-0.43,-0.103,-0.156,-0.017,0.251,-0.441,-0.265,0.169,0.331,0.148,0.257,-0.24,0.004,-0.075,-0.455,-0.283,0.151,0.47,0.329,-0.0,0.232,0.247,-0.122,0.165,-0.265,-0.156,0.159,0.355,0.3,0.084,0.034,-0.051,-0.075,-0.513,0.532,-0.487,0.13,-0.271,-0.096,-0.199,-0.608,-0.016,-0.066,0.458,-0.288,-0.096,-0.165,-0.505,0.296,-0.325,-0.596,-0.109,-0.335,0.104,-0.158,-0.46,0.249,0.182,0.051,-0.303,0.635,-0.065,-0.073,-0.219,-0.762,0.152,0.128,0.71,0.214,0.148,0.395,-0.472,-0.225,-0.207,0.063,0.744,0.052,0.212,-0.184,-0.302,0.014,0.076,0.059,0.111,0.437,0.2,-0.893,-0.187,0.154,-0.506,-0.615,-0.306,-0.31,0.125,-0.025,-0.063,-0.148,0.187,-0.052,-0.072,0.199,-0.133,0.043,0.473,-0.469,-0.262,0.156,0.302,-0.09,-1.06,-0.294,0.101,0.321,0.128,-0.707,-0.093,0.3,-0.077,-0.069,-0.242,-0.394,0.023,0.101,0.304,0.202,0.103,0.169,0.437,-0.001,-0.039,0.146,-0.308,0.435,-0.711,-0.178,-0.293,-0.06,-0.074,0.003,0.249,-0.267,0.597,-0.162,0.339,0.106,0.003,-0.035,0.276,-0.054,0.007,0.228,0.619,-0.347,0.024,-0.095,-0.29,-0.207,0.093,0.267,0.66,0.102,-0.516,-0.191,-0.044,-0.304,-0.028,-0.229,0.106,0.466,0.015,-0.105,-0.083,-0.116,-0.084,0.104,-0.142,-0.859,-0.048,-0.234,0.558,-0.118,0.033,-0.111,-0.225,0.142,-0.272,-0.18,0.671,-0.296,-0.235,-0.42,0.831,-0.12,0.188,0.406,-0.337,-0.098,0.226,-0.253,-0.084,0.209,-0.048,0.345,0.058,-0.457,-0.375,0.56,0.551,-0.144,0.165,0.067,0.122,0.281,0.164,0.428,0.095,-0.129,-0.302,0.101,0.063,0.172,0.009,0.368,-0.297,0.144,0.232,-0.117,-0.077,0.109,-0.132,0.237,-0.372,-0.126,0.08,-0.12,-0.03,0.011,-0.488,-0.241,-0.044,0.123,-0.106,-0.015,0.083,0.15,0.078,-0.34,-0.052,0.238,-0.314,-0.213,0.708,0.128,-0.055,0.009,-0.107,0.028,-0.097,0.309,0.32,-0.677,0.077,0.656,-0.526,-0.018,-0.24,-0.021,0.1,0.149,-0.229,-0.559,0.035,0.133,-0.656,0.003,-0.058,0.115,0.319,0.3,0.114,0.022,0.103,-0.34,0.03,-0.289,-0.011,-0.121,0.081,0.044,0.205,-0.348,0.23,0.123,0.163,0.38,-0.049,0.085,-0.604,-0.3,-0.075,-0.119,0.649,-0.162,0.014,-0.339,0.19,-0.187,0.066,-0.231,0.046,-0.082,0.031,-0.322,0.13,-0.038,0.15,0.379,-0.275,-0.075,0.202,0.674,-0.133,-1.079,-0.398,-0.398,0.326,0.235,-0.472,0.798,-0.206,0.036,-0.07,0.296,0.192,0.187,0.122,0.165,-0.538
